<?xml version="1.0"?>
<opencv_storage>
<cascade>
  <stageType>BOOST</stageType>
  <featureType>HAAR</featureType>
  <height>20</height>
  <width>20</width>
  <stageParams>
    <boostType>GAB</boostType>
    <minHitRate>9.9500000476837158e-01</minHitRate>
    <maxFalseAlarm>5.0000000000000000e-01</maxFalseAlarm>
    <weightTrimRate>9.4999999999999996e-01</weightTrimRate>
    <maxDepth>1</maxDepth>
    <maxWeakCount>100</maxWeakCount></stageParams>
  <featureParams>
    <maxCatCount>0</maxCatCount>
    <featSize>1</featSize>
    <mode>BASIC</mode></featureParams>
  <stageNum>15</stageNum>
  <stages>
    <!-- stage 0 -->
    <_>
      <maxWeakCount>29</maxWeakCount>
      <stageThreshold>-7.2308629751205444e-01</stageThreshold>
      <weakClassifiers>
        <_>
          <internalNodes>
            0 -1 812 -8.2285341341048479e-04</internalNodes>
          <leafValues>
            5.9344261884689331e-01 1.1891891807317734e-01</leafValues></_>
        <_>
          <internalNodes>
            0 -1 76 5.5375776719301939e-04</internalNodes>
          <leafValues>
            -1.5233364701271057e-01 3.8497287034988403e-01</leafValues></_>
        <_>
          <internalNodes>
            0 -1 507 -4.2526600882411003e-03</internalNodes>
          <leafValues>
            3.9888942241668701e-01 -1.4274024963378906e-01</leafValues></_>
        <_>
          <internalNodes>
            0 -1 336 3.2076565548777580e-03</internalNodes>
          <leafValues>
            -1.6534166038036346e-01 4.2620611190795898e-01</leafValues></_>
        <_>
          <internalNodes>
            0 -1 79 -1.2454782845452428e-03</internalNodes>
          <leafValues>
            3.3791178464889526e-01 -1.6407157480716705e-01</leafValues></_>
        <_>
          <internalNodes>
            0 -1 548 -1.7959910910576582e-03</internalNodes>
          <leafValues>
            3.3321741223335266e-01 -1.7564350366592407e-01</leafValues></_>
        <_>
          <internalNodes>
            0 -1 935 -2.2132825106382370e-03</internalNodes>
          <leafValues>
            4.4582587480545044e-01 -1.2342892587184906e-01</leafValues></_>
        <_>
          <internalNodes>
            0 -1 481 5.0154794007539749e-03</internalNodes>
          <leafValues>
            -1.3865795731544495e-01 3.4754893183708191e-01</leafValues></_>
        <_>
          <internalNodes>
            0 -1 390 -9.8419759888201952e-04</internalNodes>
          <leafValues>
            3.0187356472015381e-01 -1.5708878636360168e-01</leafValues></_>
        <_>
          <internalNodes>
            0 -1 452 -2.0115058869123459e-03</internalNodes>
          <leafValues>
            2.9625976085662842e-01 -1.3978315889835358e-01</leafValues></_>
        <_>
          <internalNodes>
            0 -1 513 -4.6100802719593048e-03</internalNodes>
          <leafValues>
            3.8847941160202026e-01 -1.2380882352590561e-01</leafValues></_>
        <_>
          <internalNodes>
            0 -1 637 -7.1817240677773952e-04</internalNodes>
          <leafValues>
            3.3992618322372437e-01 -1.1239781975746155e-01</leafValues></_>
        <_>
          <internalNodes>
            0 -1 219 8.6125644156709313e-04</internalNodes>
          <leafValues>
            -1.7928841710090637e-01 2.5268271565437317e-01</leafValues></_>
        <_>
          <internalNodes>
            0 -1 420 -2.2307974286377430e-03</internalNodes>
          <leafValues>
            3.3524858951568604e-01 -1.2299267202615738e-01</leafValues></_>
        <_>
          <internalNodes>
            0 -1 303 1.4650240773335099e-03</internalNodes>
          <leafValues>
            -1.3104118406772614e-01 3.0853977799415588e-01</leafValues></_>
        <_>
          <internalNodes>
            0 -1 826 4.9016840057447553e-04</internalNodes>
          <leafValues>
            -1.9519215822219849e-01 2.0695272088050842e-01</leafValues></_>
        <_>
          <internalNodes>
            0 -1 612 -6.2879985198378563e-03</internalNodes>
          <leafValues>
            -7.8254252672195435e-01 6.4758569002151489e-02</leafValues></_>
        <_>
          <internalNodes>
            0 -1 686 1.6031810082495213e-03</internalNodes>
          <leafValues>
            -1.7401401698589325e-01 2.1221429109573364e-01</leafValues></_>
        <_>
          <internalNodes>
            0 -1 664 -5.0074569880962372e-03</internalNodes>
          <leafValues>
            3.5096800327301025e-01 -9.7557097673416138e-02</leafValues></_>
        <_>
          <internalNodes>
            0 -1 383 -1.6123179811984301e-03</internalNodes>
          <leafValues>
            2.5289371609687805e-01 -1.4079952239990234e-01</leafValues></_>
        <_>
          <internalNodes>
            0 -1 30 -2.2724829614162445e-04</internalNodes>
          <leafValues>
            2.2533719241619110e-01 -1.5280415117740631e-01</leafValues></_>
        <_>
          <internalNodes>
            0 -1 120 1.6610348829999566e-03</internalNodes>
          <leafValues>
            -1.0142298042774200e-01 3.1212046742439270e-01</leafValues></_>
        <_>
          <internalNodes>
            0 -1 804 2.7561470866203308e-02</internalNodes>
          <leafValues>
            -1.2168554216623306e-01 3.0332016944885254e-01</leafValues></_>
        <_>
          <internalNodes>
            0 -1 904 -9.0641751885414124e-03</internalNodes>
          <leafValues>
            -6.6523742675781250e-01 5.3404044359922409e-02</leafValues></_>
        <_>
          <internalNodes>
            0 -1 697 -2.9229084029793739e-03</internalNodes>
          <leafValues>
            -7.0805168151855469e-01 4.1116245090961456e-02</leafValues></_>
        <_>
          <internalNodes>
            0 -1 558 -1.1084000580012798e-03</internalNodes>
          <leafValues>
            2.2059705853462219e-01 -1.5374907851219177e-01</leafValues></_>
        <_>
          <internalNodes>
            0 -1 958 2.7163531631231308e-03</internalNodes>
          <leafValues>
            -1.1470359563827515e-01 3.0767297744750977e-01</leafValues></_>
        <_>
          <internalNodes>
            0 -1 869 4.9657450290396810e-04</internalNodes>
          <leafValues>
            -1.2720906734466553e-01 2.9019176959991455e-01</leafValues></_>
        <_>
          <internalNodes>
            0 -1 670 -7.9613074194639921e-04</internalNodes>
          <leafValues>
            2.7343624830245972e-01 -1.2586599588394165e-01</leafValues></_></weakClassifiers></_>
    <!-- stage 1 -->
    <_>
      <maxWeakCount>58</maxWeakCount>
      <stageThreshold>-7.8603780269622803e-01</stageThreshold>
      <weakClassifiers>
        <_>
          <internalNodes>
            0 -1 70 6.6786608658730984e-04</internalNodes>
          <leafValues>
            1.5503306686878204e-01 5.1456308364868164e-01</leafValues></_>
        <_>
          <internalNodes>
            0 -1 757 9.2998973559588194e-04</internalNodes>
          <leafValues>
            -1.0035581141710281e-01 3.3962580561637878e-01</leafValues></_>
        <_>
          <internalNodes>
            0 -1 416 -6.0258465819060802e-03</internalNodes>
          <leafValues>
            3.2116129994392395e-01 -1.2570533156394958e-01</leafValues></_>
        <_>
          <internalNodes>
            0 -1 495 -7.7829195652157068e-04</internalNodes>
          <leafValues>
            2.7271240949630737e-01 -1.7981071770191193e-01</leafValues></_>
        <_>
          <internalNodes>
            0 -1 502 -8.2248104736208916e-03</internalNodes>
          <leafValues>
            2.6289585232734680e-01 -1.6070508956909180e-01</leafValues></_>
        <_>
          <internalNodes>
            0 -1 613 -4.9785184673964977e-03</internalNodes>
          <leafValues>
            -6.0863476991653442e-01 8.1521630287170410e-02</leafValues></_>
        <_>
          <internalNodes>
            0 -1 832 -1.8844149308279157e-03</internalNodes>
          <leafValues>
            1.7985820770263672e-01 -1.6182135045528412e-01</leafValues></_>
        <_>
          <internalNodes>
            0 -1 72 -2.3102492094039917e-02</internalNodes>
          <leafValues>
            3.9293631911277771e-01 -7.0349320769309998e-02</leafValues></_>
        <_>
          <internalNodes>
            0 -1 523 -2.3974720388650894e-03</internalNodes>
          <leafValues>
            2.7103260159492493e-01 -1.1088985204696655e-01</leafValues></_>
        <_>
          <internalNodes>
            0 -1 769 -4.5063942670822144e-03</internalNodes>
          <leafValues>
            -5.9314578771591187e-01 5.5383592844009399e-02</leafValues></_>
        <_>
          <internalNodes>
            0 -1 694 -7.4334107339382172e-03</internalNodes>
          <leafValues>
            -6.7906016111373901e-01 3.7238273769617081e-02</leafValues></_>
        <_>
          <internalNodes>
            0 -1 695 -1.8458168487995863e-03</internalNodes>
          <leafValues>
            2.3733974993228912e-01 -1.2185855954885483e-01</leafValues></_>
        <_>
          <internalNodes>
            0 -1 525 -4.5902896672487259e-02</internalNodes>
          <leafValues>
            -4.2066207528114319e-01 7.1768812835216522e-02</leafValues></_>
        <_>
          <internalNodes>
            0 -1 794 3.6478645051829517e-04</internalNodes>
          <leafValues>
            -1.1995176970958710e-01 2.3023049533367157e-01</leafValues></_>
        <_>
          <internalNodes>
            0 -1 940 6.3843833049759269e-04</internalNodes>
          <leafValues>
            -1.2427925318479538e-01 2.0873114466667175e-01</leafValues></_>
        <_>
          <internalNodes>
            0 -1 430 2.1857906132936478e-02</internalNodes>
          <leafValues>
            -9.3446157872676849e-02 2.7320769429206848e-01</leafValues></_>
        <_>
          <internalNodes>
            0 -1 768 1.1492898920550942e-03</internalNodes>
          <leafValues>
            -9.5433153212070465e-02 2.6771408319473267e-01</leafValues></_>
        <_>
          <internalNodes>
            0 -1 674 1.4625474810600281e-02</internalNodes>
          <leafValues>
            1.2488678842782974e-01 -2.4931110441684723e-01</leafValues></_>
        <_>
          <internalNodes>
            0 -1 248 5.8560613542795181e-03</internalNodes>
          <leafValues>
            5.8692596852779388e-02 -4.4770717620849609e-01</leafValues></_>
        <_>
          <internalNodes>
            0 -1 246 -4.1386974044144154e-03</internalNodes>
          <leafValues>
            -4.7866383194923401e-01 5.3786106407642365e-02</leafValues></_>
        <_>
          <internalNodes>
            0 -1 1009 -7.3276436887681484e-03</internalNodes>
          <leafValues>
            2.8765350580215454e-01 -8.8374547660350800e-02</leafValues></_>
        <_>
          <internalNodes>
            0 -1 884 6.0745957307517529e-04</internalNodes>
          <leafValues>
            -1.2892387807369232e-01 1.9925363361835480e-01</leafValues></_>
        <_>
          <internalNodes>
            0 -1 808 3.2646197360008955e-03</internalNodes>
          <leafValues>
            -1.1613958328962326e-01 2.4105745553970337e-01</leafValues></_>
        <_>
          <internalNodes>
            0 -1 692 4.9273688346147537e-03</internalNodes>
          <leafValues>
            2.7684235945343971e-02 -8.5021793842315674e-01</leafValues></_>
        <_>
          <internalNodes>
            0 -1 436 -2.3157317191362381e-03</internalNodes>
          <leafValues>
            2.5408297777175903e-01 -1.1545722186565399e-01</leafValues></_>
        <_>
          <internalNodes>
            0 -1 159 5.1721595227718353e-03</internalNodes>
          <leafValues>
            -7.4581317603588104e-02 3.4597805142402649e-01</leafValues></_>
        <_>
          <internalNodes>
            0 -1 9 -6.9882408715784550e-03</internalNodes>
          <leafValues>
            2.0985004305839539e-01 -1.2777923047542572e-01</leafValues></_>
        <_>
          <internalNodes>
            0 -1 66 4.3298024684190750e-03</internalNodes>
          <leafValues>
            -1.1735419929027557e-01 2.6565188169479370e-01</leafValues></_>
        <_>
          <internalNodes>
            0 -1 583 -2.7076417580246925e-02</internalNodes>
          <leafValues>
            -6.1244088411331177e-01 4.4445753097534180e-02</leafValues></_>
        <_>
          <internalNodes>
            0 -1 407 -3.7617745692841709e-04</internalNodes>
          <leafValues>
            1.9664745032787323e-01 -1.3602001965045929e-01</leafValues></_>
        <_>
          <internalNodes>
            0 -1 789 -1.4638274442404509e-03</internalNodes>
          <leafValues>
            2.1660275757312775e-01 -1.1053235828876495e-01</leafValues></_>
        <_>
          <internalNodes>
            0 -1 102 -8.8818073272705078e-03</internalNodes>
          <leafValues>
            3.5545247793197632e-01 -7.8494518995285034e-02</leafValues></_>
        <_>
          <internalNodes>
            0 -1 43 2.8874445706605911e-03</internalNodes>
          <leafValues>
            -1.2199782580137253e-01 2.2557337582111359e-01</leafValues></_>
        <_>
          <internalNodes>
            0 -1 332 -3.2264261972159147e-03</internalNodes>
          <leafValues>
            -5.3695625066757202e-01 5.2043356001377106e-02</leafValues></_>
        <_>
          <internalNodes>
            0 -1 361 -1.9116441253572702e-03</internalNodes>
          <leafValues>
            1.7528802156448364e-01 -1.4086160063743591e-01</leafValues></_>
        <_>
          <internalNodes>
            0 -1 361 6.5269591286778450e-03</internalNodes>
          <leafValues>
            -8.3519294857978821e-02 3.3681359887123108e-01</leafValues></_>
        <_>
          <internalNodes>
            0 -1 609 -1.2738954275846481e-02</internalNodes>
          <leafValues>
            -7.6490652561187744e-01 3.5644728690385818e-02</leafValues></_>
        <_>
          <internalNodes>
            0 -1 552 1.7620215658098459e-03</internalNodes>
          <leafValues>
            -1.2330292165279388e-01 2.0444287359714508e-01</leafValues></_>
        <_>
          <internalNodes>
            0 -1 721 4.9057723954319954e-03</internalNodes>
          <leafValues>
            3.7949301302433014e-02 -6.6452300548553467e-01</leafValues></_>
        <_>
          <internalNodes>
            0 -1 951 -1.8341820687055588e-03</internalNodes>
          <leafValues>
            1.8522045016288757e-01 -1.3737855851650238e-01</leafValues></_>
        <_>
          <internalNodes>
            0 -1 645 -1.6635979991406202e-03</internalNodes>
          <leafValues>
            2.1661381423473358e-01 -1.1106073111295700e-01</leafValues></_>
        <_>
          <internalNodes>
            0 -1 68 -5.1983835874125361e-04</internalNodes>
          <leafValues>
            1.9471672177314758e-01 -1.1781790107488632e-01</leafValues></_>
        <_>
          <internalNodes>
            0 -1 885 3.3369529992341995e-03</internalNodes>
          <leafValues>
            3.8819111883640289e-02 -5.8900809288024902e-01</leafValues></_>
        <_>
          <internalNodes>
            0 -1 881 -7.6141505269333720e-04</internalNodes>
          <leafValues>
            2.4266840517520905e-01 -1.1557315289974213e-01</leafValues></_>
        <_>
          <internalNodes>
            0 -1 616 1.1381136253476143e-02</internalNodes>
          <leafValues>
            4.1643839329481125e-02 -5.7037734985351562e-01</leafValues></_>
        <_>
          <internalNodes>
            0 -1 448 -8.2793214824050665e-04</internalNodes>
          <leafValues>
            2.4295958876609802e-01 -1.0659396648406982e-01</leafValues></_>
        <_>
          <internalNodes>
            0 -1 212 -6.2011938542127609e-02</internalNodes>
          <leafValues>
            7.4329745769500732e-01 -3.0317017808556557e-02</leafValues></_>
        <_>
          <internalNodes>
            0 -1 790 -1.3204938732087612e-03</internalNodes>
          <leafValues>
            2.3854459822177887e-01 -1.0136921703815460e-01</leafValues></_>
        <_>
          <internalNodes>
            0 -1 467 4.0487460792064667e-03</internalNodes>
          <leafValues>
            1.1754972487688065e-01 -1.9676755368709564e-01</leafValues></_>
        <_>
          <internalNodes>
            0 -1 598 -1.8935896456241608e-02</internalNodes>
          <leafValues>
            -7.2865808010101318e-01 3.5823412239551544e-02</leafValues></_>
        <_>
          <internalNodes>
            0 -1 567 -6.3669160008430481e-03</internalNodes>
          <leafValues>
            -5.7095175981521606e-01 3.6536406725645065e-02</leafValues></_>
        <_>
          <internalNodes>
            0 -1 706 8.9792377548292279e-04</internalNodes>
          <leafValues>
            -9.5728598535060883e-02 2.5649225711822510e-01</leafValues></_>
        <_>
          <internalNodes>
            0 -1 703 3.3847468439489603e-03</internalNodes>
          <leafValues>
            -1.2269864976406097e-01 1.8947879970073700e-01</leafValues></_>
        <_>
          <internalNodes>
            0 -1 188 4.9879499711096287e-03</internalNodes>
          <leafValues>
            -1.0520993918180466e-01 2.3052163422107697e-01</leafValues></_>
        <_>
          <internalNodes>
            0 -1 604 1.1731348931789398e-02</internalNodes>
          <leafValues>
            3.2560180872678757e-02 -7.0235270261764526e-01</leafValues></_>
        <_>
          <internalNodes>
            0 -1 147 1.4722416177392006e-02</internalNodes>
          <leafValues>
            -6.5605148673057556e-02 3.7948107719421387e-01</leafValues></_>
        <_>
          <internalNodes>
            0 -1 260 -4.4356723083183169e-04</internalNodes>
          <leafValues>
            1.5341742336750031e-01 -1.5357458591461182e-01</leafValues></_>
        <_>
          <internalNodes>
            0 -1 202 -3.6059929989278316e-03</internalNodes>
          <leafValues>
            -3.1400102376937866e-01 7.5593240559101105e-02</leafValues></_></weakClassifiers></_>
    <!-- stage 2 -->
    <_>
      <maxWeakCount>68</maxWeakCount>
      <stageThreshold>-7.0390492677688599e-01</stageThreshold>
      <weakClassifiers>
        <_>
          <internalNodes>
            0 -1 498 3.0226495582610369e-03</internalNodes>
          <leafValues>
            2.3101952672004700e-01 5.5373829603195190e-01</leafValues></_>
        <_>
          <internalNodes>
            0 -1 633 -4.9198279157280922e-03</internalNodes>
          <leafValues>
            2.9843249917030334e-01 -7.9140737652778625e-02</leafValues></_>
        <_>
          <internalNodes>
            0 -1 550 3.0103879980742931e-03</internalNodes>
          <leafValues>
            -1.4692665636539459e-01 1.9776511192321777e-01</leafValues></_>
        <_>
          <internalNodes>
            0 -1 717 4.3930746614933014e-03</internalNodes>
          <leafValues>
            4.0594924241304398e-02 -6.0111618041992188e-01</leafValues></_>
        <_>
          <internalNodes>
            0 -1 838 2.2608246654272079e-03</internalNodes>
          <leafValues>
            -1.0142380744218826e-01 2.4167835712432861e-01</leafValues></_>
        <_>
          <internalNodes>
            0 -1 701 7.4137439951300621e-03</internalNodes>
          <leafValues>
            6.1424177139997482e-02 -5.8730930089950562e-01</leafValues></_>
        <_>
          <internalNodes>
            0 -1 600 2.3679139092564583e-02</internalNodes>
          <leafValues>
            5.1194336265325546e-02 -4.9371245503425598e-01</leafValues></_>
        <_>
          <internalNodes>
            0 -1 68 -5.9582456015050411e-04</internalNodes>
          <leafValues>
            1.9914592802524567e-01 -1.2580154836177826e-01</leafValues></_>
        <_>
          <internalNodes>
            0 -1 77 2.0067715086042881e-03</internalNodes>
          <leafValues>
            -1.3568077981472015e-01 1.9499199092388153e-01</leafValues></_>
        <_>
          <internalNodes>
            0 -1 192 2.0413242746144533e-03</internalNodes>
          <leafValues>
            -8.9902803301811218e-02 2.6127484440803528e-01</leafValues></_>
        <_>
          <internalNodes>
            0 -1 85 -2.6671173982322216e-03</internalNodes>
          <leafValues>
            2.3568135499954224e-01 -1.0416199266910553e-01</leafValues></_>
        <_>
          <internalNodes>
            0 -1 962 -1.2651910074055195e-03</internalNodes>
          <leafValues>
            2.4760632216930389e-01 -9.3260996043682098e-02</leafValues></_>
        <_>
          <internalNodes>
            0 -1 169 4.8008034937083721e-03</internalNodes>
          <leafValues>
            -5.5765718221664429e-02 4.0402540564537048e-01</leafValues></_>
        <_>
          <internalNodes>
            0 -1 130 -1.9262364134192467e-02</internalNodes>
          <leafValues>
            -5.6300801038742065e-01 4.2629621922969818e-02</leafValues></_>
        <_>
          <internalNodes>
            0 -1 111 -7.8643821179866791e-03</internalNodes>
          <leafValues>
            2.7842450141906738e-01 -8.6725682020187378e-02</leafValues></_>
        <_>
          <internalNodes>
            0 -1 1000 2.2901049815118313e-03</internalNodes>
          <leafValues>
            -9.1424085199832916e-02 2.3530459403991699e-01</leafValues></_>
        <_>
          <internalNodes>
            0 -1 731 -3.5601253621280193e-03</internalNodes>
          <leafValues>
            3.2424929738044739e-01 -6.9265410304069519e-02</leafValues></_>
        <_>
          <internalNodes>
            0 -1 381 -6.9668218493461609e-03</internalNodes>
          <leafValues>
            2.5884827971458435e-01 -8.1387974321842194e-02</leafValues></_>
        <_>
          <internalNodes>
            0 -1 466 -3.0056200921535492e-02</internalNodes>
          <leafValues>
            -5.9847629070281982e-01 3.4952208399772644e-02</leafValues></_>
        <_>
          <internalNodes>
            0 -1 697 3.9917591493576765e-04</internalNodes>
          <leafValues>
            -1.5550833940505981e-01 1.9005018472671509e-01</leafValues></_>
        <_>
          <internalNodes>
            0 -1 708 -1.8270658329129219e-03</internalNodes>
          <leafValues>
            2.5337561964988708e-01 -8.4840528666973114e-02</leafValues></_>
        <_>
          <internalNodes>
            0 -1 1 -5.0895977020263672e-01</internalNodes>
          <leafValues>
            6.1909508705139160e-01 -3.6121640354394913e-02</leafValues></_>
        <_>
          <internalNodes>
            0 -1 0 4.4256042689085007e-02</internalNodes>
          <leafValues>
            -3.3824041485786438e-02 6.4063531160354614e-01</leafValues></_>
        <_>
          <internalNodes>
            0 -1 917 7.6426178216934204e-02</internalNodes>
          <leafValues>
            -2.6273185387253761e-02 6.6384714841842651e-01</leafValues></_>
        <_>
          <internalNodes>
            0 -1 596 1.5588456299155951e-03</internalNodes>
          <leafValues>
            -1.0677907615900040e-01 1.9733268022537231e-01</leafValues></_>
        <_>
          <internalNodes>
            0 -1 394 5.7935649529099464e-03</internalNodes>
          <leafValues>
            -8.5700668394565582e-02 2.3708567023277283e-01</leafValues></_>
        <_>
          <internalNodes>
            0 -1 384 -2.4844496510922909e-03</internalNodes>
          <leafValues>
            2.2951631247997284e-01 -9.3587756156921387e-02</leafValues></_>
        <_>
          <internalNodes>
            0 -1 926 -1.7112778732553124e-03</internalNodes>
          <leafValues>
            1.9002398848533630e-01 -1.0546762496232986e-01</leafValues></_>
        <_>
          <internalNodes>
            0 -1 777 -4.5646820217370987e-03</internalNodes>
          <leafValues>
            -4.9083945155143738e-01 4.1588671505451202e-02</leafValues></_>
        <_>
          <internalNodes>
            0 -1 781 -1.9672899506986141e-03</internalNodes>
          <leafValues>
            1.9408357143402100e-01 -1.0695590823888779e-01</leafValues></_>
        <_>
          <internalNodes>
            0 -1 627 6.2257973477244377e-03</internalNodes>
          <leafValues>
            4.2164191603660583e-02 -5.0777786970138550e-01</leafValues></_>
        <_>
          <internalNodes>
            0 -1 635 5.9143948601558805e-04</internalNodes>
          <leafValues>
            -1.1112453043460846e-01 2.1412983536720276e-01</leafValues></_>
        <_>
          <internalNodes>
            0 -1 878 -6.4495611004531384e-03</internalNodes>
          <leafValues>
            -7.2817087173461914e-01 2.6732977479696274e-02</leafValues></_>
        <_>
          <internalNodes>
            0 -1 140 -1.1046025902032852e-03</internalNodes>
          <leafValues>
            1.6925635933876038e-01 -1.2366788834333420e-01</leafValues></_>
        <_>
          <internalNodes>
            0 -1 938 8.2987139467149973e-04</internalNodes>
          <leafValues>
            -8.4246940910816193e-02 2.1775697171688080e-01</leafValues></_>
        <_>
          <internalNodes>
            0 -1 937 -1.0733028873801231e-02</internalNodes>
          <leafValues>
            -4.1527754068374634e-01 6.1692956835031509e-02</leafValues></_>
        <_>
          <internalNodes>
            0 -1 732 4.4919950887560844e-03</internalNodes>
          <leafValues>
            -7.4103578925132751e-02 2.7744141221046448e-01</leafValues></_>
        <_>
          <internalNodes>
            0 -1 444 -6.5755635499954224e-02</internalNodes>
          <leafValues>
            -5.8280998468399048e-01 3.6421112716197968e-02</leafValues></_>
        <_>
          <internalNodes>
            0 -1 715 -1.0315992403775454e-03</internalNodes>
          <leafValues>
            -1.7410254478454590e-01 1.1986714601516724e-01</leafValues></_>
        <_>
          <internalNodes>
            0 -1 351 1.5270287171006203e-02</internalNodes>
          <leafValues>
            -7.5718864798545837e-02 2.6567167043685913e-01</leafValues></_>
        <_>
          <internalNodes>
            0 -1 718 1.2486373074352741e-02</internalNodes>
          <leafValues>
            4.1136436164379120e-02 -5.3925466537475586e-01</leafValues></_>
        <_>
          <internalNodes>
            0 -1 237 -1.3432460837066174e-03</internalNodes>
          <leafValues>
            1.8881791830062866e-01 -1.0987032949924469e-01</leafValues></_>
        <_>
          <internalNodes>
            0 -1 251 -3.5112942568957806e-03</internalNodes>
          <leafValues>
            -4.0928691625595093e-01 5.4850004613399506e-02</leafValues></_>
        <_>
          <internalNodes>
            0 -1 799 -2.6965057477355003e-03</internalNodes>
          <leafValues>
            1.6464674472808838e-01 -1.1959361284971237e-01</leafValues></_>
        <_>
          <internalNodes>
            0 -1 216 -3.7983603775501251e-02</internalNodes>
          <leafValues>
            -4.0002867579460144e-01 5.5361412465572357e-02</leafValues></_>
        <_>
          <internalNodes>
            0 -1 175 -6.8008352536708117e-04</internalNodes>
          <leafValues>
            1.7557953298091888e-01 -1.2018613517284393e-01</leafValues></_>
        <_>
          <internalNodes>
            0 -1 390 -1.2973828706890345e-03</internalNodes>
          <leafValues>
            2.2568516433238983e-01 -9.4146899878978729e-02</leafValues></_>
        <_>
          <internalNodes>
            0 -1 463 -6.1681517399847507e-04</internalNodes>
          <leafValues>
            2.0971843600273132e-01 -1.1889528483152390e-01</leafValues></_>
        <_>
          <internalNodes>
            0 -1 654 4.4142976403236389e-03</internalNodes>
          <leafValues>
            -7.4929110705852509e-02 2.6642620563507080e-01</leafValues></_>
        <_>
          <internalNodes>
            0 -1 355 1.1876383796334267e-02</internalNodes>
          <leafValues>
            -6.5482653677463531e-02 3.4319436550140381e-01</leafValues></_>
        <_>
          <internalNodes>
            0 -1 44 2.4399783462285995e-02</internalNodes>
          <leafValues>
            3.8363769650459290e-02 -6.9305068254470825e-01</leafValues></_>
        <_>
          <internalNodes>
            0 -1 561 -1.1088122613728046e-02</internalNodes>
          <leafValues>
            -5.7049137353897095e-01 3.4533128142356873e-02</leafValues></_>
        <_>
          <internalNodes>
            0 -1 58 -8.1915244460105896e-02</internalNodes>
          <leafValues>
            4.8834717273712158e-01 -4.4188592582941055e-02</leafValues></_>
        <_>
          <internalNodes>
            0 -1 458 3.2179366098716855e-04</internalNodes>
          <leafValues>
            -1.1302118748426437e-01 1.8166235089302063e-01</leafValues></_>
        <_>
          <internalNodes>
            0 -1 603 1.9741740077733994e-02</internalNodes>
          <leafValues>
            6.1412438750267029e-02 -3.4318128228187561e-01</leafValues></_>
        <_>
          <internalNodes>
            0 -1 868 -5.6743811815977097e-02</internalNodes>
          <leafValues>
            5.3103625774383545e-01 -4.1359603404998779e-02</leafValues></_>
        <_>
          <internalNodes>
            0 -1 124 2.4323172401636839e-03</internalNodes>
          <leafValues>
            5.8454811573028564e-02 -3.7346738576889038e-01</leafValues></_>
        <_>
          <internalNodes>
            0 -1 744 1.8948731012642384e-03</internalNodes>
          <leafValues>
            -9.9547542631626129e-02 2.1644359827041626e-01</leafValues></_>
        <_>
          <internalNodes>
            0 -1 581 3.8730269297957420e-03</internalNodes>
          <leafValues>
            3.4879207611083984e-02 -6.8926626443862915e-01</leafValues></_>
        <_>
          <internalNodes>
            0 -1 888 -2.5863484479486942e-03</internalNodes>
          <leafValues>
            -1.6006904840469360e-01 1.3070227205753326e-01</leafValues></_>
        <_>
          <internalNodes>
            0 -1 496 9.6684886375442147e-04</internalNodes>
          <leafValues>
            -8.6204968392848969e-02 2.3102086782455444e-01</leafValues></_>
        <_>
          <internalNodes>
            0 -1 656 -8.7365806102752686e-03</internalNodes>
          <leafValues>
            -6.7826044559478760e-01 2.8411390259861946e-02</leafValues></_>
        <_>
          <internalNodes>
            0 -1 934 -1.0682933498173952e-03</internalNodes>
          <leafValues>
            2.1542571485042572e-01 -9.2038318514823914e-02</leafValues></_>
        <_>
          <internalNodes>
            0 -1 899 1.7123993020504713e-03</internalNodes>
          <leafValues>
            -1.0640721768140793e-01 2.5781854987144470e-01</leafValues></_>
        <_>
          <internalNodes>
            0 -1 811 1.9973232410848141e-03</internalNodes>
          <leafValues>
            -1.0542093217372894e-01 1.7366772890090942e-01</leafValues></_>
        <_>
          <internalNodes>
            0 -1 763 1.6379499807953835e-02</internalNodes>
          <leafValues>
            2.4573173373937607e-02 -7.9945838451385498e-01</leafValues></_>
        <_>
          <internalNodes>
            0 -1 82 -5.3429659456014633e-03</internalNodes>
          <leafValues>
            -6.1607545614242554e-01 2.7272997424006462e-02</leafValues></_>
        <_>
          <internalNodes>
            0 -1 194 -8.1944116391241550e-04</internalNodes>
          <leafValues>
            2.2037537395954132e-01 -9.2850178480148315e-02</leafValues></_></weakClassifiers></_>
    <!-- stage 3 -->
    <_>
      <maxWeakCount>75</maxWeakCount>
      <stageThreshold>-5.5954766273498535e-01</stageThreshold>
      <weakClassifiers>
        <_>
          <internalNodes>
            0 -1 543 -5.4511791095137596e-03</internalNodes>
          <leafValues>
            -3.6111110448837280e-01 3.7245696783065796e-01</leafValues></_>
        <_>
          <internalNodes>
            0 -1 490 1.0341778397560120e-02</internalNodes>
          <leafValues>
            -5.1269110292196274e-02 3.7532031536102295e-01</leafValues></_>
        <_>
          <internalNodes>
            0 -1 576 -4.7808918170630932e-03</internalNodes>
          <leafValues>
            -5.0171685218811035e-01 5.1405411213636398e-02</leafValues></_>
        <_>
          <internalNodes>
            0 -1 327 2.3701783269643784e-02</internalNodes>
          <leafValues>
            -5.6111562997102737e-02 4.7565925121307373e-01</leafValues></_>
        <_>
          <internalNodes>
            0 -1 327 2.3616736754775047e-02</internalNodes>
          <leafValues>
            1.8289950676262379e-03 -6.7316496372222900e-01</leafValues></_>
        <_>
          <internalNodes>
            0 -1 327 2.3701783269643784e-02</internalNodes>
          <leafValues>
            -9.6218049293383956e-04 6.1371845006942749e-01</leafValues></_>
        <_>
          <internalNodes>
            0 -1 617 1.1636044364422560e-03</internalNodes>
          <leafValues>
            -1.8233567476272583e-01 1.1801822483539581e-01</leafValues></_>
        <_>
          <internalNodes>
            0 -1 615 -1.0143198072910309e-02</internalNodes>
          <leafValues>
            -6.4025568962097168e-01 5.8050908148288727e-02</leafValues></_>
        <_>
          <internalNodes>
            0 -1 590 -2.1110983565449715e-02</internalNodes>
          <leafValues>
            -3.9609685540199280e-01 3.3838406205177307e-02</leafValues></_>
        <_>
          <internalNodes>
            0 -1 539 9.2121530324220657e-03</internalNodes>
          <leafValues>
            9.9993363022804260e-02 -2.3055869340896606e-01</leafValues></_>
        <_>
          <internalNodes>
            0 -1 657 1.2569656595587730e-02</internalNodes>
          <leafValues>
            -4.6662297099828720e-02 4.9280980229377747e-01</leafValues></_>
        <_>
          <internalNodes>
            0 -1 667 -5.1204040646553040e-02</internalNodes>
          <leafValues>
            -8.3430415391921997e-01 2.2806502878665924e-02</leafValues></_>
        <_>
          <internalNodes>
            0 -1 621 -3.6898404359817505e-03</internalNodes>
          <leafValues>
            2.5456202030181885e-01 -8.7552733719348907e-02</leafValues></_>
        <_>
          <internalNodes>
            0 -1 997 -3.4478900488466024e-03</internalNodes>
          <leafValues>
            -5.2308124303817749e-01 3.9538510143756866e-02</leafValues></_>
        <_>
          <internalNodes>
            0 -1 695 4.0802336297929287e-03</internalNodes>
          <leafValues>
            -7.9123638570308685e-02 2.7364754676818848e-01</leafValues></_>
        <_>
          <internalNodes>
            0 -1 241 7.1131773293018341e-03</internalNodes>
          <leafValues>
            6.0345135629177094e-02 -3.4414970874786377e-01</leafValues></_>
        <_>
          <internalNodes>
            0 -1 433 2.5932738557457924e-02</internalNodes>
          <leafValues>
            2.1055866032838821e-02 -7.6330900192260742e-01</leafValues></_>
        <_>
          <internalNodes>
            0 -1 777 -5.5770701728761196e-03</internalNodes>
          <leafValues>
            -5.9596741199493408e-01 2.9939468950033188e-02</leafValues></_>
        <_>
          <internalNodes>
            0 -1 777 5.0914594903588295e-03</internalNodes>
          <leafValues>
            3.3786565065383911e-02 -4.9682834744453430e-01</leafValues></_>
        <_>
          <internalNodes>
            0 -1 501 -1.1203370057046413e-02</internalNodes>
          <leafValues>
            1.9629207253456116e-01 -9.1775730252265930e-02</leafValues></_>
        <_>
          <internalNodes>
            0 -1 839 3.0718207359313965e-02</internalNodes>
          <leafValues>
            -3.4917790442705154e-02 4.5047602057456970e-01</leafValues></_>
        <_>
          <internalNodes>
            0 -1 907 5.4293172433972359e-03</internalNodes>
          <leafValues>
            3.6345075815916061e-02 -4.8839479684829712e-01</leafValues></_>
        <_>
          <internalNodes>
            0 -1 638 1.3162386603653431e-03</internalNodes>
          <leafValues>
            -1.1931361258029938e-01 1.6276979446411133e-01</leafValues></_>
        <_>
          <internalNodes>
            0 -1 895 -3.5509869921952486e-03</internalNodes>
          <leafValues>
            -2.0405583083629608e-01 8.8726185262203217e-02</leafValues></_>
        <_>
          <internalNodes>
            0 -1 308 -2.6925208047032356e-02</internalNodes>
          <leafValues>
            1.8063689768314362e-01 -1.0024906694889069e-01</leafValues></_>
        <_>
          <internalNodes>
            0 -1 197 1.2415014207363129e-02</internalNodes>
          <leafValues>
            -7.1275286376476288e-02 2.8418755531311035e-01</leafValues></_>
        <_>
          <internalNodes>
            0 -1 195 -3.8219839334487915e-03</internalNodes>
          <leafValues>
            2.4278500676155090e-01 -9.0192310512065887e-02</leafValues></_>
        <_>
          <internalNodes>
            0 -1 156 -1.5969015657901764e-02</internalNodes>
          <leafValues>
            -6.3175421953201294e-01 3.6340549588203430e-02</leafValues></_>
        <_>
          <internalNodes>
            0 -1 947 -6.3725415384396911e-04</internalNodes>
          <leafValues>
            -2.1440000832080841e-01 8.2092106342315674e-02</leafValues></_>
        <_>
          <internalNodes>
            0 -1 425 2.0129065960645676e-03</internalNodes>
          <leafValues>
            -8.2700125873088837e-02 2.1809488534927368e-01</leafValues></_>
        <_>
          <internalNodes>
            0 -1 99 -5.2260989323258400e-03</internalNodes>
          <leafValues>
            -5.4468113183975220e-01 3.5834286361932755e-02</leafValues></_>
        <_>
          <internalNodes>
            0 -1 81 9.1195330023765564e-03</internalNodes>
          <leafValues>
            2.2512275725603104e-02 -7.2347360849380493e-01</leafValues></_>
        <_>
          <internalNodes>
            0 -1 78 1.4705073554068804e-03</internalNodes>
          <leafValues>
            -9.6419610083103180e-02 1.7902517318725586e-01</leafValues></_>
        <_>
          <internalNodes>
            0 -1 54 -2.5796117261052132e-03</internalNodes>
          <leafValues>
            1.8653732538223267e-01 -1.1693276464939117e-01</leafValues></_>
        <_>
          <internalNodes>
            0 -1 42 -1.9139630021527410e-03</internalNodes>
          <leafValues>
            -3.3143198490142822e-01 5.5870175361633301e-02</leafValues></_>
        <_>
          <internalNodes>
            0 -1 253 5.0426740199327469e-03</internalNodes>
          <leafValues>
            -7.2015240788459778e-02 2.6449269056320190e-01</leafValues></_>
        <_>
          <internalNodes>
            0 -1 418 -7.2525255382061005e-04</internalNodes>
          <leafValues>
            1.9217671453952789e-01 -9.5037065446376801e-02</leafValues></_>
        <_>
          <internalNodes>
            0 -1 419 4.0047820657491684e-03</internalNodes>
          <leafValues>
            4.2919341474771500e-02 -3.9927461743354797e-01</leafValues></_>
        <_>
          <internalNodes>
            0 -1 258 3.0292106792330742e-02</internalNodes>
          <leafValues>
            -3.5457324236631393e-02 5.3648489713668823e-01</leafValues></_>
        <_>
          <internalNodes>
            0 -1 594 -3.0704850796610117e-03</internalNodes>
          <leafValues>
            -4.1520977020263672e-01 4.7203987836837769e-02</leafValues></_>
        <_>
          <internalNodes>
            0 -1 791 -2.5182387325912714e-03</internalNodes>
          <leafValues>
            1.9904488325119019e-01 -9.1374129056930542e-02</leafValues></_>
        <_>
          <internalNodes>
            0 -1 630 1.2329522287473083e-03</internalNodes>
          <leafValues>
            -1.0521592199802399e-01 1.7115221917629242e-01</leafValues></_>
        <_>
          <internalNodes>
            0 -1 773 -7.4855368584394455e-03</internalNodes>
          <leafValues>
            2.1514759957790375e-01 -8.8565617799758911e-02</leafValues></_>
        <_>
          <internalNodes>
            0 -1 284 2.2538723424077034e-03</internalNodes>
          <leafValues>
            -8.2222759723663330e-02 2.1175466477870941e-01</leafValues></_>
        <_>
          <internalNodes>
            0 -1 336 -4.4104577973484993e-03</internalNodes>
          <leafValues>
            2.9700523614883423e-01 -5.8947004377841949e-02</leafValues></_>
        <_>
          <internalNodes>
            0 -1 377 -9.5325142145156860e-02</internalNodes>
          <leafValues>
            -7.1487420797348022e-01 2.8147969394922256e-02</leafValues></_>
        <_>
          <internalNodes>
            0 -1 478 1.0544083081185818e-02</internalNodes>
          <leafValues>
            3.1439948827028275e-02 -5.1599973440170288e-01</leafValues></_>
        <_>
          <internalNodes>
            0 -1 580 1.8630975857377052e-02</internalNodes>
          <leafValues>
            2.8577014803886414e-02 -5.9955632686614990e-01</leafValues></_>
        <_>
          <internalNodes>
            0 -1 129 -8.9899208396673203e-03</internalNodes>
          <leafValues>
            -7.2927510738372803e-01 2.0240979269146919e-02</leafValues></_>
        <_>
          <internalNodes>
            0 -1 753 -3.7064257776364684e-04</internalNodes>
          <leafValues>
            1.3843676447868347e-01 -1.2955108284950256e-01</leafValues></_>
        <_>
          <internalNodes>
            0 -1 465 1.1799594387412071e-02</internalNodes>
          <leafValues>
            3.6173250526189804e-02 -5.8985733985900879e-01</leafValues></_>
        <_>
          <internalNodes>
            0 -1 357 1.8818246899172664e-03</internalNodes>
          <leafValues>
            -7.7789284288883209e-02 2.3484279215335846e-01</leafValues></_>
        <_>
          <internalNodes>
            0 -1 553 5.5374897783622146e-04</internalNodes>
          <leafValues>
            1.0051596909761429e-01 -1.6087411344051361e-01</leafValues></_>
        <_>
          <internalNodes>
            0 -1 464 1.7910048365592957e-02</internalNodes>
          <leafValues>
            -2.9132746160030365e-02 6.2996363639831543e-01</leafValues></_>
        <_>
          <internalNodes>
            0 -1 331 7.0316335186362267e-03</internalNodes>
          <leafValues>
            2.9556632041931152e-02 -6.9811534881591797e-01</leafValues></_>
        <_>
          <internalNodes>
            0 -1 609 7.6208813115954399e-03</internalNodes>
          <leafValues>
            4.4375404715538025e-02 -3.3940654993057251e-01</leafValues></_>
        <_>
          <internalNodes>
            0 -1 687 2.0390208810567856e-03</internalNodes>
          <leafValues>
            -7.8800305724143982e-02 2.2365349531173706e-01</leafValues></_>
        <_>
          <internalNodes>
            0 -1 689 -3.0350596643984318e-03</internalNodes>
          <leafValues>
            2.7102595567703247e-01 -6.4664490520954132e-02</leafValues></_>
        <_>
          <internalNodes>
            0 -1 232 -6.0070091858506203e-03</internalNodes>
          <leafValues>
            2.4821396172046661e-01 -6.7019134759902954e-02</leafValues></_>
        <_>
          <internalNodes>
            0 -1 74 -2.5650919415056705e-03</internalNodes>
          <leafValues>
            1.9468736648559570e-01 -9.4581902027130127e-02</leafValues></_>
        <_>
          <internalNodes>
            0 -1 7 2.3353386670351028e-02</internalNodes>
          <leafValues>
            -8.1520631909370422e-02 2.1002374589443207e-01</leafValues></_>
        <_>
          <internalNodes>
            0 -1 985 7.4590096483007073e-04</internalNodes>
          <leafValues>
            8.1925936043262482e-02 -2.1932925283908844e-01</leafValues></_>
        <_>
          <internalNodes>
            0 -1 301 -3.7231685128062963e-03</internalNodes>
          <leafValues>
            -3.3289474248886108e-01 5.4222390055656433e-02</leafValues></_>
        <_>
          <internalNodes>
            0 -1 157 -1.4516514725983143e-02</internalNodes>
          <leafValues>
            -4.4799450039863586e-01 3.3400792628526688e-02</leafValues></_>
        <_>
          <internalNodes>
            0 -1 406 3.3835440874099731e-02</internalNodes>
          <leafValues>
            -6.1251763254404068e-02 3.0051270127296448e-01</leafValues></_>
        <_>
          <internalNodes>
            0 -1 843 -3.0666831880807877e-03</internalNodes>
          <leafValues>
            1.5150770545005798e-01 -1.2422647327184677e-01</leafValues></_>
        <_>
          <internalNodes>
            0 -1 872 4.1486578993499279e-03</internalNodes>
          <leafValues>
            3.7342689931392670e-02 -4.5966127514839172e-01</leafValues></_>
        <_>
          <internalNodes>
            0 -1 133 5.2342424169182777e-04</internalNodes>
          <leafValues>
            1.2655435502529144e-01 -1.3862210512161255e-01</leafValues></_>
        <_>
          <internalNodes>
            0 -1 297 -4.5151094673201442e-04</internalNodes>
          <leafValues>
            1.6840125620365143e-01 -1.0254340618848801e-01</leafValues></_>
        <_>
          <internalNodes>
            0 -1 646 -1.5626311302185059e-02</internalNodes>
          <leafValues>
            -2.1311362087726593e-01 8.3563536405563354e-02</leafValues></_>
        <_>
          <internalNodes>
            0 -1 964 -1.4263049233704805e-03</internalNodes>
          <leafValues>
            2.0386761426925659e-01 -1.0260566323995590e-01</leafValues></_>
        <_>
          <internalNodes>
            0 -1 1011 8.9331797789782286e-04</internalNodes>
          <leafValues>
            7.3459908366203308e-02 -2.3832260072231293e-01</leafValues></_>
        <_>
          <internalNodes>
            0 -1 1007 3.9041582494974136e-03</internalNodes>
          <leafValues>
            -8.1062860786914825e-02 2.2354219853878021e-01</leafValues></_>
        <_>
          <internalNodes>
            0 -1 999 4.9294612836092710e-04</internalNodes>
          <leafValues>
            -1.1295745521783829e-01 1.5661148726940155e-01</leafValues></_>
        <_>
          <internalNodes>
            0 -1 992 -4.4775474816560745e-03</internalNodes>
          <leafValues>
            2.1786244213581085e-01 -8.8434860110282898e-02</leafValues></_></weakClassifiers></_>
    <!-- stage 4 -->
    <_>
      <maxWeakCount>78</maxWeakCount>
      <stageThreshold>-5.8848899602890015e-01</stageThreshold>
      <weakClassifiers>
        <_>
          <internalNodes>
            0 -1 693 -5.6850994005799294e-03</internalNodes>
          <leafValues>
            -4.5945945382118225e-01 3.5567402839660645e-01</leafValues></_>
        <_>
          <internalNodes>
            0 -1 821 4.8002190887928009e-02</internalNodes>
          <leafValues>
            -3.0716579407453537e-02 4.5127016305923462e-01</leafValues></_>
        <_>
          <internalNodes>
            0 -1 828 -1.0714067611843348e-03</internalNodes>
          <leafValues>
            2.0388130843639374e-01 -1.3349039852619171e-01</leafValues></_>
        <_>
          <internalNodes>
            0 -1 829 -3.9143282920122147e-03</internalNodes>
          <leafValues>
            -4.3068575859069824e-01 5.3756143897771835e-02</leafValues></_>
        <_>
          <internalNodes>
            0 -1 690 -1.6542017459869385e-02</internalNodes>
          <leafValues>
            1.7287403345108032e-01 -1.6625829041004181e-01</leafValues></_>
        <_>
          <internalNodes>
            0 -1 227 -2.9630572535097599e-03</internalNodes>
          <leafValues>
            2.5967907905578613e-01 -5.6904960423707962e-02</leafValues></_>
        <_>
          <internalNodes>
            0 -1 780 1.4204710721969604e-02</internalNodes>
          <leafValues>
            -1.2916612625122070e-01 1.9487813115119934e-01</leafValues></_>
        <_>
          <internalNodes>
            0 -1 76 1.5016512770671397e-04</internalNodes>
          <leafValues>
            -1.5903876721858978e-01 1.4179039001464844e-01</leafValues></_>
        <_>
          <internalNodes>
            0 -1 775 -9.2454236000776291e-03</internalNodes>
          <leafValues>
            2.6261526346206665e-01 -7.5471237301826477e-02</leafValues></_>
        <_>
          <internalNodes>
            0 -1 510 1.6638668603263795e-04</internalNodes>
          <leafValues>
            -1.5631912648677826e-01 1.4699196815490723e-01</leafValues></_>
        <_>
          <internalNodes>
            0 -1 427 7.0082992315292358e-03</internalNodes>
          <leafValues>
            -8.3927877247333527e-02 2.5314971804618835e-01</leafValues></_>
        <_>
          <internalNodes>
            0 -1 1004 -5.0926301628351212e-03</internalNodes>
          <leafValues>
            -5.1249474287033081e-01 3.7035312503576279e-02</leafValues></_>
        <_>
          <internalNodes>
            0 -1 852 6.1292489990592003e-03</internalNodes>
          <leafValues>
            -1.0369152575731277e-01 1.8544438481330872e-01</leafValues></_>
        <_>
          <internalNodes>
            0 -1 894 -2.8362066950649023e-03</internalNodes>
          <leafValues>
            1.8501628935337067e-01 -9.4936169683933258e-02</leafValues></_>
        <_>
          <internalNodes>
            0 -1 910 -3.5839560441672802e-03</internalNodes>
          <leafValues>
            -3.5804036259651184e-01 5.4039333015680313e-02</leafValues></_>
        <_>
          <internalNodes>
            0 -1 817 -1.5193857252597809e-03</internalNodes>
          <leafValues>
            1.7848412692546844e-01 -1.0512459278106689e-01</leafValues></_>
        <_>
          <internalNodes>
            0 -1 41 -1.0555761400610209e-03</internalNodes>
          <leafValues>
            1.6236580908298492e-01 -1.1342131346464157e-01</leafValues></_>
        <_>
          <internalNodes>
            0 -1 450 -2.5072991847991943e-03</internalNodes>
          <leafValues>
            2.1083761751651764e-01 -7.9734362661838531e-02</leafValues></_>
        <_>
          <internalNodes>
            0 -1 325 -9.2071981634944677e-04</internalNodes>
          <leafValues>
            1.4726300537586212e-01 -1.1842708289623260e-01</leafValues></_>
        <_>
          <internalNodes>
            0 -1 887 -4.9552377313375473e-03</internalNodes>
          <leafValues>
            -3.3363291621208191e-01 5.3504392504692078e-02</leafValues></_>
        <_>
          <internalNodes>
            0 -1 572 1.2018130160868168e-02</internalNodes>
          <leafValues>
            -4.5482087880373001e-02 3.7762445211410522e-01</leafValues></_>
        <_>
          <internalNodes>
            0 -1 415 1.0543977841734886e-02</internalNodes>
          <leafValues>
            -5.5453512817621231e-02 3.2372009754180908e-01</leafValues></_>
        <_>
          <internalNodes>
            0 -1 966 -1.1874824995175004e-03</internalNodes>
          <leafValues>
            -2.4478361010551453e-01 7.8213810920715332e-02</leafValues></_>
        <_>
          <internalNodes>
            0 -1 707 -7.7353033702820539e-04</internalNodes>
          <leafValues>
            1.7501012980937958e-01 -1.0266251862049103e-01</leafValues></_>
        <_>
          <internalNodes>
            0 -1 713 -4.9839094281196594e-03</internalNodes>
          <leafValues>
            -5.4068768024444580e-01 3.4974135458469391e-02</leafValues></_>
        <_>
          <internalNodes>
            0 -1 348 2.0980933913961053e-04</internalNodes>
          <leafValues>
            -1.1715600639581680e-01 1.6749614477157593e-01</leafValues></_>
        <_>
          <internalNodes>
            0 -1 697 4.3907258659601212e-03</internalNodes>
          <leafValues>
            3.0518092215061188e-02 -6.4869940280914307e-01</leafValues></_>
        <_>
          <internalNodes>
            0 -1 599 3.8373924326151609e-03</internalNodes>
          <leafValues>
            8.8271796703338623e-02 -2.0341283082962036e-01</leafValues></_>
        <_>
          <internalNodes>
            0 -1 867 -4.5953903347253799e-02</internalNodes>
          <leafValues>
            2.9452434182167053e-01 -6.0870654881000519e-02</leafValues></_>
        <_>
          <internalNodes>
            0 -1 486 6.0966704040765762e-03</internalNodes>
          <leafValues>
            2.4990022182464600e-02 -7.8689795732498169e-01</leafValues></_>
        <_>
          <internalNodes>
            0 -1 677 3.5113412886857986e-03</internalNodes>
          <leafValues>
            3.1348887830972672e-02 -4.6575158834457397e-01</leafValues></_>
        <_>
          <internalNodes>
            0 -1 358 1.0605422779917717e-02</internalNodes>
          <leafValues>
            -6.0894850641489029e-02 2.9082009196281433e-01</leafValues></_>
        <_>
          <internalNodes>
            0 -1 246 6.3070664182305336e-03</internalNodes>
          <leafValues>
            3.3286426216363907e-02 -5.9041219949722290e-01</leafValues></_>
        <_>
          <internalNodes>
            0 -1 962 -9.1197132132947445e-04</internalNodes>
          <leafValues>
            1.8881638348102570e-01 -1.0019904375076294e-01</leafValues></_>
        <_>
          <internalNodes>
            0 -1 956 7.7482330380007625e-04</internalNodes>
          <leafValues>
            -1.0135679692029953e-01 1.6762082278728485e-01</leafValues></_>
        <_>
          <internalNodes>
            0 -1 424 4.1665993630886078e-03</internalNodes>
          <leafValues>
            3.3477164804935455e-02 -4.8794373869895935e-01</leafValues></_>
        <_>
          <internalNodes>
            0 -1 496 6.8738160189241171e-04</internalNodes>
          <leafValues>
            -1.0454717278480530e-01 1.8715748190879822e-01</leafValues></_>
        <_>
          <internalNodes>
            0 -1 499 2.4669491685926914e-03</internalNodes>
          <leafValues>
            -8.4770113229751587e-02 1.9259867072105408e-01</leafValues></_>
        <_>
          <internalNodes>
            0 -1 696 -1.5227335970848799e-03</internalNodes>
          <leafValues>
            1.8966032564640045e-01 -9.2190138995647430e-02</leafValues></_>
        <_>
          <internalNodes>
            0 -1 267 9.6889967098832130e-03</internalNodes>
          <leafValues>
            -7.1125790476799011e-02 2.3684811592102051e-01</leafValues></_>
        <_>
          <internalNodes>
            0 -1 268 -2.9569999314844608e-03</internalNodes>
          <leafValues>
            2.1226488053798676e-01 -9.9168486893177032e-02</leafValues></_>
        <_>
          <internalNodes>
            0 -1 426 4.7735148109495640e-04</internalNodes>
          <leafValues>
            -1.1392959952354431e-01 1.6011863946914673e-01</leafValues></_>
        <_>
          <internalNodes>
            0 -1 549 -1.6952671110630035e-02</internalNodes>
          <leafValues>
            -4.9268797039985657e-01 3.4797567874193192e-02</leafValues></_>
        <_>
          <internalNodes>
            0 -1 547 5.2376193925738335e-03</internalNodes>
          <leafValues>
            -6.1324749141931534e-02 2.6170539855957031e-01</leafValues></_>
        <_>
          <internalNodes>
            0 -1 704 -6.3021080568432808e-03</internalNodes>
          <leafValues>
            2.6747173070907593e-01 -6.2877684831619263e-02</leafValues></_>
        <_>
          <internalNodes>
            0 -1 375 -6.9142729043960571e-02</internalNodes>
          <leafValues>
            -6.6547441482543945e-01 2.5266200304031372e-02</leafValues></_>
        <_>
          <internalNodes>
            0 -1 738 -1.7651166999712586e-03</internalNodes>
          <leafValues>
            1.5870092809200287e-01 -1.0652682930231094e-01</leafValues></_>
        <_>
          <internalNodes>
            0 -1 556 -7.9225969966500998e-04</internalNodes>
          <leafValues>
            2.1623653173446655e-01 -7.6813548803329468e-02</leafValues></_>
        <_>
          <internalNodes>
            0 -1 532 -1.3590065762400627e-02</internalNodes>
          <leafValues>
            -4.9106335639953613e-01 3.5462148487567902e-02</leafValues></_>
        <_>
          <internalNodes>
            0 -1 107 -4.9261599779129028e-03</internalNodes>
          <leafValues>
            -4.6657806634902954e-01 3.5345900803804398e-02</leafValues></_>
        <_>
          <internalNodes>
            0 -1 112 7.5274058617651463e-03</internalNodes>
          <leafValues>
            -6.5049163997173309e-02 2.6997539401054382e-01</leafValues></_>
        <_>
          <internalNodes>
            0 -1 882 -4.7609629109501839e-03</internalNodes>
          <leafValues>
            -4.6193867921829224e-01 4.3039046227931976e-02</leafValues></_>
        <_>
          <internalNodes>
            0 -1 662 4.3374402448534966e-03</internalNodes>
          <leafValues>
            4.1147414594888687e-02 -3.8161343336105347e-01</leafValues></_>
        <_>
          <internalNodes>
            0 -1 919 3.5358998924493790e-02</internalNodes>
          <leafValues>
            -3.2324057072401047e-02 5.4829889535903931e-01</leafValues></_>
        <_>
          <internalNodes>
            0 -1 13 6.1135318130254745e-02</internalNodes>
          <leafValues>
            -5.8765400201082230e-02 2.8620651364326477e-01</leafValues></_>
        <_>
          <internalNodes>
            0 -1 100 -5.1445718854665756e-03</internalNodes>
          <leafValues>
            2.3788808286190033e-01 -6.8912990391254425e-02</leafValues></_>
        <_>
          <internalNodes>
            0 -1 200 9.7348056733608246e-03</internalNodes>
          <leafValues>
            2.5884447619318962e-02 -8.0370569229125977e-01</leafValues></_>
        <_>
          <internalNodes>
            0 -1 299 -2.9141174163669348e-03</internalNodes>
          <leafValues>
            1.7247053980827332e-01 -1.0351401567459106e-01</leafValues></_>
        <_>
          <internalNodes>
            0 -1 456 6.0566268861293793e-02</internalNodes>
          <leafValues>
            5.5631663650274277e-02 -3.0914646387100220e-01</leafValues></_>
        <_>
          <internalNodes>
            0 -1 337 -7.5554382055997849e-03</internalNodes>
          <leafValues>
            2.8385838866233826e-01 -6.1607521027326584e-02</leafValues></_>
        <_>
          <internalNodes>
            0 -1 625 2.6895918417721987e-03</internalNodes>
          <leafValues>
            5.4758343845605850e-02 -3.2215619087219238e-01</leafValues></_>
        <_>
          <internalNodes>
            0 -1 877 7.9559292644262314e-03</internalNodes>
          <leafValues>
            6.2564060091972351e-02 -2.7399271726608276e-01</leafValues></_>
        <_>
          <internalNodes>
            0 -1 211 -8.8799614459276199e-03</internalNodes>
          <leafValues>
            3.7692049145698547e-01 -4.8134323209524155e-02</leafValues></_>
        <_>
          <internalNodes>
            0 -1 145 -6.2671338673681021e-04</internalNodes>
          <leafValues>
            1.8398940563201904e-01 -9.4399802386760712e-02</leafValues></_>
        <_>
          <internalNodes>
            0 -1 189 -1.2570112943649292e-02</internalNodes>
          <leafValues>
            2.6938349008560181e-01 -6.6548034548759460e-02</leafValues></_>
        <_>
          <internalNodes>
            0 -1 374 -2.7138530276715755e-03</internalNodes>
          <leafValues>
            1.9395542144775391e-01 -9.4318121671676636e-02</leafValues></_>
        <_>
          <internalNodes>
            0 -1 554 6.5866569057106972e-03</internalNodes>
          <leafValues>
            -8.6969681084156036e-02 2.0757019519805908e-01</leafValues></_>
        <_>
          <internalNodes>
            0 -1 526 -3.3737022895365953e-03</internalNodes>
          <leafValues>
            -4.7102189064025879e-01 4.0714189410209656e-02</leafValues></_>
        <_>
          <internalNodes>
            0 -1 848 1.7098512500524521e-02</internalNodes>
          <leafValues>
            6.2081858515739441e-02 -2.9252326488494873e-01</leafValues></_>
        <_>
          <internalNodes>
            0 -1 396 -6.5556690096855164e-03</internalNodes>
          <leafValues>
            -7.0301651954650879e-01 2.4596124887466431e-02</leafValues></_>
        <_>
          <internalNodes>
            0 -1 825 -1.0378065053373575e-03</internalNodes>
          <leafValues>
            1.4584533870220184e-01 -1.1972735822200775e-01</leafValues></_>
        <_>
          <internalNodes>
            0 -1 873 -6.5099736675620079e-03</internalNodes>
          <leafValues>
            -3.2559010386466980e-01 5.1810469478368759e-02</leafValues></_>
        <_>
          <internalNodes>
            0 -1 669 -1.2588743120431900e-02</internalNodes>
          <leafValues>
            1.9595342874526978e-01 -9.3912072479724884e-02</leafValues></_>
        <_>
          <internalNodes>
            0 -1 137 -2.7293707244098186e-03</internalNodes>
          <leafValues>
            -3.5316923260688782e-01 5.1658958196640015e-02</leafValues></_>
        <_>
          <internalNodes>
            0 -1 993 2.7285995893180370e-03</internalNodes>
          <leafValues>
            4.1329257190227509e-02 -3.9744654297828674e-01</leafValues></_>
        <_>
          <internalNodes>
            0 -1 326 5.5031338706612587e-03</internalNodes>
          <leafValues>
            -6.0356866568326950e-02 2.7793329954147339e-01</leafValues></_>
        <_>
          <internalNodes>
            0 -1 458 -5.6606478756293654e-04</internalNodes>
          <leafValues>
            1.9975417852401733e-01 -1.0643148422241211e-01</leafValues></_>
        <_>
          <internalNodes>
            0 -1 455 1.6827318817377090e-02</internalNodes>
          <leafValues>
            3.3103406429290771e-02 -5.6384670734405518e-01</leafValues></_></weakClassifiers></_>
    <!-- stage 5 -->
    <_>
      <maxWeakCount>84</maxWeakCount>
      <stageThreshold>-5.7104927301406860e-01</stageThreshold>
      <weakClassifiers>
        <_>
          <internalNodes>
            0 -1 835 -3.6524806637316942e-03</internalNodes>
          <leafValues>
            5.4879593849182129e-01 2.4437467753887177e-01</leafValues></_>
        <_>
          <internalNodes>
            0 -1 243 5.8552101254463196e-03</internalNodes>
          <leafValues>
            -6.0577481985092163e-02 3.1613424420356750e-01</leafValues></_>
        <_>
          <internalNodes>
            0 -1 850 9.4757403712719679e-04</internalNodes>
          <leafValues>
            -1.3108287751674652e-01 1.6813133656978607e-01</leafValues></_>
        <_>
          <internalNodes>
            0 -1 397 3.6295945756137371e-03</internalNodes>
          <leafValues>
            -7.9996526241302490e-02 2.5685179233551025e-01</leafValues></_>
        <_>
          <internalNodes>
            0 -1 238 6.3818052876740694e-04</internalNodes>
          <leafValues>
            -1.1767452210187912e-01 1.7283381521701813e-01</leafValues></_>
        <_>
          <internalNodes>
            0 -1 996 1.0156278731301427e-03</internalNodes>
          <leafValues>
            -1.1987759172916412e-01 1.5868204832077026e-01</leafValues></_>
        <_>
          <internalNodes>
            0 -1 372 1.0405069217085838e-02</internalNodes>
          <leafValues>
            5.0719086080789566e-02 -3.3439972996711731e-01</leafValues></_>
        <_>
          <internalNodes>
            0 -1 446 -1.8575140275061131e-03</internalNodes>
          <leafValues>
            1.8777522444725037e-01 -1.0945151746273041e-01</leafValues></_>
        <_>
          <internalNodes>
            0 -1 199 -7.5462320819497108e-04</internalNodes>
          <leafValues>
            2.0315343141555786e-01 -8.9136660099029541e-02</leafValues></_>
        <_>
          <internalNodes>
            0 -1 154 6.8948478437960148e-03</internalNodes>
          <leafValues>
            2.8888236731290817e-02 -6.6147267818450928e-01</leafValues></_>
        <_>
          <internalNodes>
            0 -1 362 1.4176466502249241e-03</internalNodes>
          <leafValues>
            -1.1327538639307022e-01 1.5617470443248749e-01</leafValues></_>
        <_>
          <internalNodes>
            0 -1 774 -1.0244447737932205e-02</internalNodes>
          <leafValues>
            1.7247946560382843e-01 -1.0638230293989182e-01</leafValues></_>
        <_>
          <internalNodes>
            0 -1 746 -6.3083395361900330e-03</internalNodes>
          <leafValues>
            -6.2675988674163818e-01 2.4849854409694672e-02</leafValues></_>
        <_>
          <internalNodes>
            0 -1 518 9.7671188414096832e-03</internalNodes>
          <leafValues>
            -8.2992523908615112e-02 2.2959183156490326e-01</leafValues></_>
        <_>
          <internalNodes>
            0 -1 67 -1.0865858197212219e-01</internalNodes>
          <leafValues>
            2.3111063241958618e-01 -8.1060849130153656e-02</leafValues></_>
        <_>
          <internalNodes>
            0 -1 406 3.0244268476963043e-02</internalNodes>
          <leafValues>
            -7.1268789470195770e-02 2.7605509757995605e-01</leafValues></_>
        <_>
          <internalNodes>
            0 -1 488 -1.5708471182733774e-03</internalNodes>
          <leafValues>
            1.6995926201343536e-01 -1.1140811443328857e-01</leafValues></_>
        <_>
          <internalNodes>
            0 -1 728 -5.0133178010582924e-03</internalNodes>
          <leafValues>
            -4.9779945611953735e-01 4.4110562652349472e-02</leafValues></_>
        <_>
          <internalNodes>
            0 -1 168 2.5004637427628040e-04</internalNodes>
          <leafValues>
            -1.0866207629442215e-01 1.4434629678726196e-01</leafValues></_>
        <_>
          <internalNodes>
            0 -1 939 -5.4873351473361254e-04</internalNodes>
          <leafValues>
            1.4770928025245667e-01 -1.0740026086568832e-01</leafValues></_>
        <_>
          <internalNodes>
            0 -1 938 8.2826195284724236e-04</internalNodes>
          <leafValues>
            -9.3597628176212311e-02 2.1234335005283356e-01</leafValues></_>
        <_>
          <internalNodes>
            0 -1 559 -2.6889150030910969e-03</internalNodes>
          <leafValues>
            -1.8176950514316559e-01 9.6727371215820312e-02</leafValues></_>
        <_>
          <internalNodes>
            0 -1 591 -1.2941416352987289e-03</internalNodes>
          <leafValues>
            2.1574227511882782e-01 -7.6142758131027222e-02</leafValues></_>
        <_>
          <internalNodes>
            0 -1 764 -1.0903133079409599e-02</internalNodes>
          <leafValues>
            -5.6009060144424438e-01 2.9795141890645027e-02</leafValues></_>
        <_>
          <internalNodes>
            0 -1 328 5.5752703920006752e-03</internalNodes>
          <leafValues>
            -7.1090586483478546e-02 2.3781728744506836e-01</leafValues></_>
        <_>
          <internalNodes>
            0 -1 881 7.1323936572298408e-04</internalNodes>
          <leafValues>
            -1.0396172106266022e-01 1.7673006653785706e-01</leafValues></_>
        <_>
          <internalNodes>
            0 -1 931 -7.6124016195535660e-03</internalNodes>
          <leafValues>
            -2.6065552234649658e-01 6.4245767891407013e-02</leafValues></_>
        <_>
          <internalNodes>
            0 -1 819 -2.6338933035731316e-02</internalNodes>
          <leafValues>
            3.6431318521499634e-01 -4.5626588165760040e-02</leafValues></_>
        <_>
          <internalNodes>
            0 -1 480 3.6383874714374542e-02</internalNodes>
          <leafValues>
            3.2728191465139389e-02 -5.3464597463607788e-01</leafValues></_>
        <_>
          <internalNodes>
            0 -1 722 9.4551610527560115e-04</internalNodes>
          <leafValues>
            -9.2566750943660736e-02 1.7040462791919708e-01</leafValues></_>
        <_>
          <internalNodes>
            0 -1 578 7.2735678404569626e-03</internalNodes>
          <leafValues>
            2.0776322111487389e-02 -6.7792636156082153e-01</leafValues></_>
        <_>
          <internalNodes>
            0 -1 94 -3.7656421773135662e-03</internalNodes>
          <leafValues>
            1.8587169051170349e-01 -8.2228973507881165e-02</leafValues></_>
        <_>
          <internalNodes>
            0 -1 48 -7.7457551378756762e-04</internalNodes>
          <leafValues>
            -1.7499922215938568e-01 8.6909309029579163e-02</leafValues></_>
        <_>
          <internalNodes>
            0 -1 969 3.4691486507654190e-03</internalNodes>
          <leafValues>
            -6.7972391843795776e-02 2.2042912244796753e-01</leafValues></_>
        <_>
          <internalNodes>
            0 -1 871 -2.3756758309900761e-03</internalNodes>
          <leafValues>
            -3.3015498518943787e-01 5.2122697234153748e-02</leafValues></_>
        <_>
          <internalNodes>
            0 -1 892 -1.8206188455224037e-02</internalNodes>
          <leafValues>
            5.3430896997451782e-01 -3.0228706076741219e-02</leafValues></_>
        <_>
          <internalNodes>
            0 -1 666 1.5382006764411926e-02</internalNodes>
          <leafValues>
            3.3356361091136932e-02 -5.1477867364883423e-01</leafValues></_>
        <_>
          <internalNodes>
            0 -1 275 -8.3136686589568853e-04</internalNodes>
          <leafValues>
            1.5360216796398163e-01 -1.0201948136091232e-01</leafValues></_>
        <_>
          <internalNodes>
            0 -1 389 -2.4647903628647327e-03</internalNodes>
          <leafValues>
            1.7657975852489471e-01 -8.6707912385463715e-02</leafValues></_>
        <_>
          <internalNodes>
            0 -1 282 -3.9094155654311180e-03</internalNodes>
          <leafValues>
            -3.5970386862754822e-01 4.6200558543205261e-02</leafValues></_>
        <_>
          <internalNodes>
            0 -1 110 -2.1398716489784420e-04</internalNodes>
          <leafValues>
            1.3479295372962952e-01 -1.1914230138063431e-01</leafValues></_>
        <_>
          <internalNodes>
            0 -1 541 -7.1601951494812965e-03</internalNodes>
          <leafValues>
            -3.1930005550384521e-01 4.9791797995567322e-02</leafValues></_>
        <_>
          <internalNodes>
            0 -1 183 2.0453907549381256e-02</internalNodes>
          <leafValues>
            -6.6132850944995880e-02 2.8469598293304443e-01</leafValues></_>
        <_>
          <internalNodes>
            0 -1 171 5.5752649903297424e-02</internalNodes>
          <leafValues>
            -3.8619942963123322e-02 3.8739752769470215e-01</leafValues></_>
        <_>
          <internalNodes>
            0 -1 113 -9.3033015727996826e-03</internalNodes>
          <leafValues>
            3.3577245473861694e-01 -4.3241508305072784e-02</leafValues></_>
        <_>
          <internalNodes>
            0 -1 810 5.4321065545082092e-03</internalNodes>
          <leafValues>
            3.0334461480379105e-02 -5.5131894350051880e-01</leafValues></_>
        <_>
          <internalNodes>
            0 -1 841 -1.1776247061789036e-02</internalNodes>
          <leafValues>
            -5.3259581327438354e-01 2.8355447575449944e-02</leafValues></_>
        <_>
          <internalNodes>
            0 -1 948 2.5122936815023422e-02</internalNodes>
          <leafValues>
            -2.1697781980037689e-02 8.3490711450576782e-01</leafValues></_>
        <_>
          <internalNodes>
            0 -1 500 -9.6180837135761976e-04</internalNodes>
          <leafValues>
            1.2039537727832794e-01 -1.3271355628967285e-01</leafValues></_>
        <_>
          <internalNodes>
            0 -1 146 -7.3926560580730438e-03</internalNodes>
          <leafValues>
            -4.5954635739326477e-01 3.3175904303789139e-02</leafValues></_>
        <_>
          <internalNodes>
            0 -1 730 -3.1901518814265728e-03</internalNodes>
          <leafValues>
            2.9981794953346252e-01 -5.7979896664619446e-02</leafValues></_>
        <_>
          <internalNodes>
            0 -1 597 -1.3077691197395325e-02</internalNodes>
          <leafValues>
            -5.6956624984741211e-01 3.3307049423456192e-02</leafValues></_>
        <_>
          <internalNodes>
            0 -1 916 -8.3920650184154510e-02</internalNodes>
          <leafValues>
            3.8796210289001465e-01 -4.9777142703533173e-02</leafValues></_>
        <_>
          <internalNodes>
            0 -1 69 -3.1821625307202339e-03</internalNodes>
          <leafValues>
            2.0040610432624817e-01 -9.0040162205696106e-02</leafValues></_>
        <_>
          <internalNodes>
            0 -1 286 -7.3374425992369652e-03</internalNodes>
          <leafValues>
            2.4436265230178833e-01 -7.0697307586669922e-02</leafValues></_>
        <_>
          <internalNodes>
            0 -1 762 6.1204805970191956e-03</internalNodes>
          <leafValues>
            -6.7062653601169586e-02 2.7264848351478577e-01</leafValues></_>
        <_>
          <internalNodes>
            0 -1 745 -1.2004605960100889e-03</internalNodes>
          <leafValues>
            2.0444607734680176e-01 -8.5861913859844208e-02</leafValues></_>
        <_>
          <internalNodes>
            0 -1 805 2.7196383103728294e-02</internalNodes>
          <leafValues>
            3.2352529466152191e-02 -5.0216138362884521e-01</leafValues></_>
        <_>
          <internalNodes>
            0 -1 760 -2.5751888751983643e-03</internalNodes>
          <leafValues>
            1.8971382081508636e-01 -8.5924692451953888e-02</leafValues></_>
        <_>
          <internalNodes>
            0 -1 335 -2.7803331613540649e-03</internalNodes>
          <leafValues>
            2.1757470071315765e-01 -7.3276944458484650e-02</leafValues></_>
        <_>
          <internalNodes>
            0 -1 863 1.8863406777381897e-01</internalNodes>
          <leafValues>
            -1.8407197669148445e-02 7.6664477586746216e-01</leafValues></_>
        <_>
          <internalNodes>
            0 -1 340 -5.6475102901458740e-03</internalNodes>
          <leafValues>
            2.2590821981430054e-01 -6.5836280584335327e-02</leafValues></_>
        <_>
          <internalNodes>
            0 -1 803 -1.0213887318968773e-02</internalNodes>
          <leafValues>
            1.7839381098747253e-01 -8.7224505841732025e-02</leafValues></_>
        <_>
          <internalNodes>
            0 -1 923 1.4554602967109531e-04</internalNodes>
          <leafValues>
            -1.1486416310071945e-01 1.3795940577983856e-01</leafValues></_>
        <_>
          <internalNodes>
            0 -1 733 3.7341925781220198e-04</internalNodes>
          <leafValues>
            1.3095936179161072e-01 -1.3038741052150726e-01</leafValues></_>
        <_>
          <internalNodes>
            0 -1 265 -2.2215388715267181e-02</internalNodes>
          <leafValues>
            -6.6084450483322144e-01 2.5708945468068123e-02</leafValues></_>
        <_>
          <internalNodes>
            0 -1 983 6.2688917387276888e-04</internalNodes>
          <leafValues>
            9.6357941627502441e-02 -1.6751119494438171e-01</leafValues></_>
        <_>
          <internalNodes>
            0 -1 854 -2.3377849720418453e-03</internalNodes>
          <leafValues>
            2.0738297700881958e-01 -8.4006205201148987e-02</leafValues></_>
        <_>
          <internalNodes>
            0 -1 858 3.2547480077482760e-04</internalNodes>
          <leafValues>
            -1.1042061448097229e-01 1.5998995304107666e-01</leafValues></_>
        <_>
          <internalNodes>
            0 -1 769 -2.6674806140363216e-03</internalNodes>
          <leafValues>
            -3.5218688845634460e-01 5.1989909261465073e-02</leafValues></_>
        <_>
          <internalNodes>
            0 -1 671 -1.1577238328754902e-03</internalNodes>
          <leafValues>
            1.8089540302753448e-01 -9.4511240720748901e-02</leafValues></_>
        <_>
          <internalNodes>
            0 -1 454 -6.1181224882602692e-02</internalNodes>
          <leafValues>
            -8.3679056167602539e-01 2.2351054474711418e-02</leafValues></_>
        <_>
          <internalNodes>
            0 -1 503 1.2850837782025337e-02</internalNodes>
          <leafValues>
            3.7413928657770157e-02 -3.9577817916870117e-01</leafValues></_>
        <_>
          <internalNodes>
            0 -1 404 -5.5116444127634168e-04</internalNodes>
          <leafValues>
            1.4804464578628540e-01 -1.0638166964054108e-01</leafValues></_>
        <_>
          <internalNodes>
            0 -1 806 8.9107581879943609e-04</internalNodes>
          <leafValues>
            -9.3117773532867432e-02 1.6781370341777802e-01</leafValues></_>
        <_>
          <internalNodes>
            0 -1 864 -2.6834360323846340e-03</internalNodes>
          <leafValues>
            1.5599401295185089e-01 -1.1042961478233337e-01</leafValues></_>
        <_>
          <internalNodes>
            0 -1 912 4.2088180780410767e-03</internalNodes>
          <leafValues>
            4.0551401674747467e-02 -3.9311340451240540e-01</leafValues></_>
        <_>
          <internalNodes>
            0 -1 570 -1.0829262901097536e-03</internalNodes>
          <leafValues>
            1.6154855489730835e-01 -1.1082380264997482e-01</leafValues></_>
        <_>
          <internalNodes>
            0 -1 422 -4.2648697271943092e-03</internalNodes>
          <leafValues>
            2.1421109139919281e-01 -8.3333879709243774e-02</leafValues></_>
        <_>
          <internalNodes>
            0 -1 855 1.5259174630045891e-02</internalNodes>
          <leafValues>
            3.7300921976566315e-02 -5.6673306226730347e-01</leafValues></_>
        <_>
          <internalNodes>
            0 -1 356 5.5315135978162289e-03</internalNodes>
          <leafValues>
            2.8147984296083450e-02 -5.5302107334136963e-01</leafValues></_>
        <_>
          <internalNodes>
            0 -1 280 7.8792035579681396e-02</internalNodes>
          <leafValues>
            2.6506463065743446e-02 -5.9461033344268799e-01</leafValues></_>
        <_>
          <internalNodes>
            0 -1 302 5.1810322329401970e-03</internalNodes>
          <leafValues>
            6.0386095196008682e-02 -2.7261820435523987e-01</leafValues></_>
        <_>
          <internalNodes>
            0 -1 341 8.8525399565696716e-02</internalNodes>
          <leafValues>
            3.2857801765203476e-02 -5.0022935867309570e-01</leafValues></_></weakClassifiers></_>
    <!-- stage 6 -->
    <_>
      <maxWeakCount>90</maxWeakCount>
      <stageThreshold>-5.3317493200302124e-01</stageThreshold>
      <weakClassifiers>
        <_>
          <internalNodes>
            0 -1 691 -5.0278385169804096e-03</internalNodes>
          <leafValues>
            -3.6734694242477417e-01 3.5972329974174500e-01</leafValues></_>
        <_>
          <internalNodes>
            0 -1 417 -7.9775284975767136e-03</internalNodes>
          <leafValues>
            2.5345638394355774e-01 -5.0213806331157684e-02</leafValues></_>
        <_>
          <internalNodes>
            0 -1 493 6.0246386565268040e-03</internalNodes>
          <leafValues>
            -9.3911334872245789e-02 2.1311672031879425e-01</leafValues></_>
        <_>
          <internalNodes>
            0 -1 363 -5.2147841779515147e-04</internalNodes>
          <leafValues>
            1.4482362568378448e-01 -1.1779808998107910e-01</leafValues></_>
        <_>
          <internalNodes>
            0 -1 331 -6.7712496966123581e-03</internalNodes>
          <leafValues>
            -6.2777584791183472e-01 2.6112236082553864e-02</leafValues></_>
        <_>
          <internalNodes>
            0 -1 769 1.0448020184412599e-03</internalNodes>
          <leafValues>
            -1.1106473207473755e-01 1.4496859908103943e-01</leafValues></_>
        <_>
          <internalNodes>
            0 -1 770 -6.8673398345708847e-04</internalNodes>
          <leafValues>
            1.4023371040821075e-01 -1.5334182977676392e-01</leafValues></_>
        <_>
          <internalNodes>
            0 -1 695 2.4165860377252102e-03</internalNodes>
          <leafValues>
            -9.5608651638031006e-02 1.9674725830554962e-01</leafValues></_>
        <_>
          <internalNodes>
            0 -1 995 -8.5624086204916239e-04</internalNodes>
          <leafValues>
            1.6965982317924500e-01 -1.0464397817850113e-01</leafValues></_>
        <_>
          <internalNodes>
            0 -1 882 4.6201222576200962e-03</internalNodes>
          <leafValues>
            1.9206926226615906e-02 -5.2401566505432129e-01</leafValues></_>
        <_>
          <internalNodes>
            0 -1 46 -7.7076017623767257e-04</internalNodes>
          <leafValues>
            -1.7658047378063202e-01 9.4918534159660339e-02</leafValues></_>
        <_>
          <internalNodes>
            0 -1 555 1.0917318984866142e-02</internalNodes>
          <leafValues>
            4.5345686376094818e-02 -3.9395117759704590e-01</leafValues></_>
        <_>
          <internalNodes>
            0 -1 29 1.9611379131674767e-02</internalNodes>
          <leafValues>
            -5.1007732748985291e-02 3.4215867519378662e-01</leafValues></_>
        <_>
          <internalNodes>
            0 -1 71 3.7223771214485168e-02</internalNodes>
          <leafValues>
            -3.7843275815248489e-02 4.3834567070007324e-01</leafValues></_>
        <_>
          <internalNodes>
            0 -1 836 5.6348182260990143e-03</internalNodes>
          <leafValues>
            3.0999321490526199e-02 -6.1241734027862549e-01</leafValues></_>
        <_>
          <internalNodes>
            0 -1 530 -5.0619419198483229e-04</internalNodes>
          <leafValues>
            1.5239629149436951e-01 -1.0041587799787521e-01</leafValues></_>
        <_>
          <internalNodes>
            0 -1 604 -8.8505223393440247e-03</internalNodes>
          <leafValues>
            -4.1984015703201294e-01 3.7565004080533981e-02</leafValues></_>
        <_>
          <internalNodes>
            0 -1 601 1.5587475150823593e-02</internalNodes>
          <leafValues>
            -5.6944306939840317e-02 3.4220418334007263e-01</leafValues></_>
        <_>
          <internalNodes>
            0 -1 998 5.5709495209157467e-03</internalNodes>
          <leafValues>
            -7.0342808961868286e-02 2.4234779179096222e-01</leafValues></_>
        <_>
          <internalNodes>
            0 -1 862 1.3616058230400085e-01</internalNodes>
          <leafValues>
            -4.7112934291362762e-02 3.7954729795455933e-01</leafValues></_>
        <_>
          <internalNodes>
            0 -1 334 2.2253361530601978e-03</internalNodes>
          <leafValues>
            -7.0938415825366974e-02 2.1918337047100067e-01</leafValues></_>
        <_>
          <internalNodes>
            0 -1 719 1.8527988344430923e-02</internalNodes>
          <leafValues>
            -4.1782744228839874e-02 3.9832264184951782e-01</leafValues></_>
        <_>
          <internalNodes>
            0 -1 649 -3.2447495032101870e-03</internalNodes>
          <leafValues>
            -4.6590432524681091e-01 3.9046239107847214e-02</leafValues></_>
        <_>
          <internalNodes>
            0 -1 557 1.4993287622928619e-03</internalNodes>
          <leafValues>
            -8.6018957197666168e-02 1.9938787817955017e-01</leafValues></_>
        <_>
          <internalNodes>
            0 -1 276 -1.1848558206111193e-03</internalNodes>
          <leafValues>
            1.4916822314262390e-01 -1.1201456189155579e-01</leafValues></_>
        <_>
          <internalNodes>
            0 -1 908 3.7859673611819744e-03</internalNodes>
          <leafValues>
            3.4483611583709717e-02 -5.1834422349929810e-01</leafValues></_>
        <_>
          <internalNodes>
            0 -1 1002 1.5013947850093246e-03</internalNodes>
          <leafValues>
            -9.2992447316646576e-02 1.7525105178356171e-01</leafValues></_>
        <_>
          <internalNodes>
            0 -1 915 4.4638110557571054e-04</internalNodes>
          <leafValues>
            -1.0977923125028610e-01 1.4984644949436188e-01</leafValues></_>
        <_>
          <internalNodes>
            0 -1 447 -1.3773574028164148e-03</internalNodes>
          <leafValues>
            1.6745562851428986e-01 -9.7589515149593353e-02</leafValues></_>
        <_>
          <internalNodes>
            0 -1 624 -2.9363504145294428e-03</internalNodes>
          <leafValues>
            -5.2018004655838013e-01 3.6548990756273270e-02</leafValues></_>
        <_>
          <internalNodes>
            0 -1 655 1.4983028173446655e-02</internalNodes>
          <leafValues>
            -3.7483993917703629e-02 4.2900606989860535e-01</leafValues></_>
        <_>
          <internalNodes>
            0 -1 965 3.2334113493561745e-03</internalNodes>
          <leafValues>
            3.8439325988292694e-02 -4.6055570244789124e-01</leafValues></_>
        <_>
          <internalNodes>
            0 -1 196 8.2321660593152046e-03</internalNodes>
          <leafValues>
            -7.4530288577079773e-02 2.0948709547519684e-01</leafValues></_>
        <_>
          <internalNodes>
            0 -1 506 -2.1369317546486855e-03</internalNodes>
          <leafValues>
            1.3654249906539917e-01 -1.1150358617305756e-01</leafValues></_>
        <_>
          <internalNodes>
            0 -1 217 -4.7417851164937019e-03</internalNodes>
          <leafValues>
            1.6712796688079834e-01 -9.1649584472179413e-02</leafValues></_>
        <_>
          <internalNodes>
            0 -1 514 6.3983551226556301e-03</internalNodes>
          <leafValues>
            2.9674163088202477e-02 -5.8306092023849487e-01</leafValues></_>
        <_>
          <internalNodes>
            0 -1 70 5.3242046851664782e-04</internalNodes>
          <leafValues>
            -1.2996716797351837e-01 1.1671392619609833e-01</leafValues></_>
        <_>
          <internalNodes>
            0 -1 367 3.0618982855230570e-03</internalNodes>
          <leafValues>
            3.7641055881977081e-02 -4.0381401777267456e-01</leafValues></_>
        <_>
          <internalNodes>
            0 -1 846 -3.4519208129495382e-03</internalNodes>
          <leafValues>
            -3.3952155709266663e-01 4.2992010712623596e-02</leafValues></_>
        <_>
          <internalNodes>
            0 -1 779 7.6792035251855850e-03</internalNodes>
          <leafValues>
            -8.0916821956634521e-02 2.0306189358234406e-01</leafValues></_>
        <_>
          <internalNodes>
            0 -1 875 2.1111857146024704e-02</internalNodes>
          <leafValues>
            4.7837503254413605e-02 -3.8549154996871948e-01</leafValues></_>
        <_>
          <internalNodes>
            0 -1 401 -1.6695602098479867e-03</internalNodes>
          <leafValues>
            2.0289845764636993e-01 -7.2562336921691895e-02</leafValues></_>
        <_>
          <internalNodes>
            0 -1 307 -5.4624984040856361e-03</internalNodes>
          <leafValues>
            -7.5389921665191650e-01 1.9913239404559135e-02</leafValues></_>
        <_>
          <internalNodes>
            0 -1 623 -7.6258853077888489e-02</internalNodes>
          <leafValues>
            -5.1204746961593628e-01 2.5550778955221176e-02</leafValues></_>
        <_>
          <internalNodes>
            0 -1 91 1.4654364204034209e-03</internalNodes>
          <leafValues>
            8.9871704578399658e-02 -1.5554739534854889e-01</leafValues></_>
        <_>
          <internalNodes>
            0 -1 135 -2.6030567823909223e-04</internalNodes>
          <leafValues>
            1.3999697566032410e-01 -1.1071339994668961e-01</leafValues></_>
        <_>
          <internalNodes>
            0 -1 924 5.4083239287137985e-02</internalNodes>
          <leafValues>
            -2.0247071981430054e-02 7.0333653688430786e-01</leafValues></_>
        <_>
          <internalNodes>
            0 -1 224 1.4344191551208496e-01</internalNodes>
          <leafValues>
            3.6878257989883423e-02 -4.3558853864669800e-01</leafValues></_>
        <_>
          <internalNodes>
            0 -1 925 1.7514634877443314e-02</internalNodes>
          <leafValues>
            -4.3370194733142853e-02 4.1584283113479614e-01</leafValues></_>
        <_>
          <internalNodes>
            0 -1 699 1.5134786954149604e-03</internalNodes>
          <leafValues>
            -1.0592270642518997e-01 1.3818199932575226e-01</leafValues></_>
        <_>
          <internalNodes>
            0 -1 709 -1.0516816750168800e-02</internalNodes>
          <leafValues>
            2.7500289678573608e-01 -6.0665547847747803e-02</leafValues></_>
        <_>
          <internalNodes>
            0 -1 618 1.3745229691267014e-02</internalNodes>
          <leafValues>
            3.8504045456647873e-02 -4.3837490677833557e-01</leafValues></_>
        <_>
          <internalNodes>
            0 -1 751 9.1696437448263168e-03</internalNodes>
          <leafValues>
            -7.4849478900432587e-02 2.4247792363166809e-01</leafValues></_>
        <_>
          <internalNodes>
            0 -1 376 3.9547607302665710e-02</internalNodes>
          <leafValues>
            5.1293652504682541e-02 -3.9061349630355835e-01</leafValues></_>
        <_>
          <internalNodes>
            0 -1 153 7.1364552713930607e-03</internalNodes>
          <leafValues>
            5.7177972048521042e-02 -2.5493547320365906e-01</leafValues></_>
        <_>
          <internalNodes>
            0 -1 675 -1.5817109495401382e-02</internalNodes>
          <leafValues>
            2.9666256904602051e-01 -5.3472705185413361e-02</leafValues></_>
        <_>
          <internalNodes>
            0 -1 792 7.5505338609218597e-03</internalNodes>
          <leafValues>
            2.4856615811586380e-02 -7.1835070848464966e-01</leafValues></_>
        <_>
          <internalNodes>
            0 -1 605 -4.0808087214827538e-03</internalNodes>
          <leafValues>
            2.2026394307613373e-01 -7.0569984614849091e-02</leafValues></_>
        <_>
          <internalNodes>
            0 -1 533 -3.4818518906831741e-02</internalNodes>
          <leafValues>
            -5.9565138816833496e-01 2.6938771829009056e-02</leafValues></_>
        <_>
          <internalNodes>
            0 -1 440 4.0901820175349712e-03</internalNodes>
          <leafValues>
            2.3779641836881638e-02 -5.7701736688613892e-01</leafValues></_>
        <_>
          <internalNodes>
            0 -1 116 -1.6799221339169890e-04</internalNodes>
          <leafValues>
            1.2906529009342194e-01 -1.1164034157991409e-01</leafValues></_>
        <_>
          <internalNodes>
            0 -1 880 -2.0022548735141754e-02</internalNodes>
          <leafValues>
            1.6973879933357239e-01 -8.9809596538543701e-02</leafValues></_>
        <_>
          <internalNodes>
            0 -1 967 5.1334716379642487e-02</internalNodes>
          <leafValues>
            -2.8077941387891769e-02 5.2128177881240845e-01</leafValues></_>
        <_>
          <internalNodes>
            0 -1 252 -1.4384607784450054e-03</internalNodes>
          <leafValues>
            1.7550453543663025e-01 -8.6589284241199493e-02</leafValues></_>
        <_>
          <internalNodes>
            0 -1 809 -8.4901077207177877e-04</internalNodes>
          <leafValues>
            1.0933954268693924e-01 -1.2806434929370880e-01</leafValues></_>
        <_>
          <internalNodes>
            0 -1 874 -7.1646263822913170e-03</internalNodes>
          <leafValues>
            -3.4212258458137512e-01 4.9457587301731110e-02</leafValues></_>
        <_>
          <internalNodes>
            0 -1 386 1.4445459470152855e-02</internalNodes>
          <leafValues>
            2.8628181666135788e-02 -4.9943810701370239e-01</leafValues></_>
        <_>
          <internalNodes>
            0 -1 236 -7.9460180131718516e-04</internalNodes>
          <leafValues>
            1.4143627882003784e-01 -1.0261221975088120e-01</leafValues></_>
        <_>
          <internalNodes>
            0 -1 235 8.6704560089856386e-04</internalNodes>
          <leafValues>
            -7.1075543761253357e-02 2.0314164459705353e-01</leafValues></_>
        <_>
          <internalNodes>
            0 -1 431 -8.2739088684320450e-03</internalNodes>
          <leafValues>
            1.4454799890518188e-01 -9.6278853714466095e-02</leafValues></_>
        <_>
          <internalNodes>
            0 -1 644 2.3833271116018295e-03</internalNodes>
          <leafValues>
            7.5735144317150116e-02 -1.8420432507991791e-01</leafValues></_>
        <_>
          <internalNodes>
            0 -1 178 2.5064814835786819e-02</internalNodes>
          <leafValues>
            -1.8661968410015106e-02 6.3866895437240601e-01</leafValues></_>
        <_>
          <internalNodes>
            0 -1 807 1.4365956187248230e-02</internalNodes>
          <leafValues>
            -5.3746405988931656e-02 2.5517484545707703e-01</leafValues></_>
        <_>
          <internalNodes>
            0 -1 837 -3.5651973448693752e-03</internalNodes>
          <leafValues>
            1.7399892210960388e-01 -1.0917547345161438e-01</leafValues></_>
        <_>
          <internalNodes>
            0 -1 257 -8.1505715847015381e-02</internalNodes>
          <leafValues>
            -2.9798164963722229e-01 5.6035894900560379e-02</leafValues></_>
        <_>
          <internalNodes>
            0 -1 239 -1.3892992865294218e-03</internalNodes>
          <leafValues>
            1.9845622777938843e-01 -7.8042320907115936e-02</leafValues></_>
        <_>
          <internalNodes>
            0 -1 239 -4.1524944826960564e-03</internalNodes>
          <leafValues>
            -4.1577774286270142e-01 4.2197950184345245e-02</leafValues></_>
        <_>
          <internalNodes>
            0 -1 912 -3.9797639474272728e-03</internalNodes>
          <leafValues>
            -3.4904059767723083e-01 4.2019993066787720e-02</leafValues></_>
        <_>
          <internalNodes>
            0 -1 174 -6.7659933120012283e-04</internalNodes>
          <leafValues>
            1.8176966905593872e-01 -8.4539115428924561e-02</leafValues></_>
        <_>
          <internalNodes>
            0 -1 32 1.6339572612196207e-03</internalNodes>
          <leafValues>
            5.4457396268844604e-02 -2.7107292413711548e-01</leafValues></_>
        <_>
          <internalNodes>
            0 -1 783 -9.2561217024922371e-04</internalNodes>
          <leafValues>
            1.7617385089397430e-01 -8.3361014723777771e-02</leafValues></_>
        <_>
          <internalNodes>
            0 -1 787 5.0590024329721928e-04</internalNodes>
          <leafValues>
            -9.4138279557228088e-02 1.7808020114898682e-01</leafValues></_>
        <_>
          <internalNodes>
            0 -1 984 1.3397322036325932e-03</internalNodes>
          <leafValues>
            6.8618640303611755e-02 -2.0698593556880951e-01</leafValues></_>
        <_>
          <internalNodes>
            0 -1 844 -3.0862302519381046e-03</internalNodes>
          <leafValues>
            -2.1251513063907623e-01 7.1684814989566803e-02</leafValues></_>
        <_>
          <internalNodes>
            0 -1 143 6.2937109032645822e-04</internalNodes>
          <leafValues>
            -9.3552283942699432e-02 1.6514481604099274e-01</leafValues></_>
        <_>
          <internalNodes>
            0 -1 714 5.6486885296180844e-04</internalNodes>
          <leafValues>
            -1.0103739053010941e-01 1.5729276835918427e-01</leafValues></_>
        <_>
          <internalNodes>
            0 -1 694 -2.9652127996087074e-03</internalNodes>
          <leafValues>
            -2.4720939993858337e-01 6.0552716255187988e-02</leafValues></_>
        <_>
          <internalNodes>
            0 -1 850 8.7252818048000336e-04</internalNodes>
          <leafValues>
            -1.0297519713640213e-01 1.5436711907386780e-01</leafValues></_>
        <_>
          <internalNodes>
            0 -1 398 2.8079277835786343e-03</internalNodes>
          <leafValues>
            -7.1132339537143707e-02 1.9657881557941437e-01</leafValues></_>
        <_>
          <internalNodes>
            0 -1 391 1.6035299748182297e-02</internalNodes>
          <leafValues>
            -4.5454371720552444e-02 3.5229733586311340e-01</leafValues></_></weakClassifiers></_>
    <!-- stage 7 -->
    <_>
      <maxWeakCount>92</maxWeakCount>
      <stageThreshold>-5.9856653213500977e-01</stageThreshold>
      <weakClassifiers>
        <_>
          <internalNodes>
            0 -1 618 -1.1896418407559395e-02</internalNodes>
          <leafValues>
            -4.6478873491287231e-01 3.5488778352737427e-01</leafValues></_>
        <_>
          <internalNodes>
            0 -1 250 -5.7129366323351860e-03</internalNodes>
          <leafValues>
            3.2065731287002563e-01 -3.9319589734077454e-02</leafValues></_>
        <_>
          <internalNodes>
            0 -1 479 -7.1819974109530449e-03</internalNodes>
          <leafValues>
            -2.3272289335727692e-01 6.4238995313644409e-02</leafValues></_>
        <_>
          <internalNodes>
            0 -1 851 8.5431626066565514e-03</internalNodes>
          <leafValues>
            -7.4861712753772736e-02 2.0472238957881927e-01</leafValues></_>
        <_>
          <internalNodes>
            0 -1 473 1.7726137302815914e-03</internalNodes>
          <leafValues>
            -9.9243573844432831e-02 1.5668205916881561e-01</leafValues></_>
        <_>
          <internalNodes>
            0 -1 39 -6.1165571212768555e-02</internalNodes>
          <leafValues>
            -4.5015895366668701e-01 1.5354009345173836e-02</leafValues></_>
        <_>
          <internalNodes>
            0 -1 631 1.7675556242465973e-02</internalNodes>
          <leafValues>
            5.0931159406900406e-02 -4.2108494043350220e-01</leafValues></_>
        <_>
          <internalNodes>
            0 -1 978 4.2719375342130661e-03</internalNodes>
          <leafValues>
            8.4687331691384315e-03 -5.8826971054077148e-01</leafValues></_>
        <_>
          <internalNodes>
            0 -1 494 -6.2755241990089417e-02</internalNodes>
          <leafValues>
            -4.1965353488922119e-01 4.1005864739418030e-02</leafValues></_>
        <_>
          <internalNodes>
            0 -1 266 1.1503733694553375e-01</internalNodes>
          <leafValues>
            6.5026022493839264e-02 -3.1019577383995056e-01</leafValues></_>
        <_>
          <internalNodes>
            0 -1 818 -2.6804544031620026e-03</internalNodes>
          <leafValues>
            1.9229744374752045e-01 -8.8394865393638611e-02</leafValues></_>
        <_>
          <internalNodes>
            0 -1 815 -6.7726275883615017e-03</internalNodes>
          <leafValues>
            -4.4721576571464539e-01 3.6088336259126663e-02</leafValues></_>
        <_>
          <internalNodes>
            0 -1 285 -5.4280832409858704e-03</internalNodes>
          <leafValues>
            2.7493306994438171e-01 -7.5147353112697601e-02</leafValues></_>
        <_>
          <internalNodes>
            0 -1 84 -2.8626164421439171e-03</internalNodes>
          <leafValues>
            -4.0046778321266174e-01 4.7962512820959091e-02</leafValues></_>
        <_>
          <internalNodes>
